CHEMBL4523655	-9.86533641815186	4.10395574569702	-4.24812126159668	5.04275894165039	-10.77834033966064	1.89714336395264	-0.23286880552769	5.51290750503540	-1.95165205001831	-10.60129356384277	-1.00032901763916	5.44532299041748	-4.49145030975342	-3.97933626174927	-1.50583457946777	13.36729049682617	-1.48668324947357	11.22642517089844	-5.20846128463745	0.56496948003769	10.46966648101807	4.12313270568848	-12.87379932403564	3.55424380302429	-19.17624664306641	-15.13558006286621	13.84125137329102	0.74521732330322	1.70673394203186	-16.03516387939453	-0.26046776771545	1.01342868804932	5.95669031143188	-1.68874239921570	15.50125312805176	1.55263912677765	9.78946018218994	4.54434776306152	2.38034820556641	-1.96149265766144	-26.25002288818359	-13.99823665618896	-13.29180908203125	3.12160086631775	4.96782970428467	5.73820543289185	-7.35179996490479	-12.82168579101562	1.14695012569427	-8.52505874633789	-4.30787754058838	5.29026031494141	1.53413188457489	-8.64963531494141	2.56388878822327	3.13045120239258	0.16024893522263	-2.33210849761963	8.39447593688965	5.78639793395996	-0.74739211797714	-5.48982715606689	4.22574615478516	-10.93148899078369	-13.18256378173828	9.37928199768066	4.71656703948975	-10.05531692504883	12.80584526062012	4.54926109313965	9.64197158813477	-0.73971146345139	-1.99374032020569	3.97711157798767	6.81988525390625	-6.96739959716797	3.26269245147705	11.90785217285156	1.08859395980835	-9.15753936767578	-5.69169282913208	3.43574523925781	7.88128566741943	6.48818206787109	-8.19768619537354	9.77129936218262	-19.02761650085449	10.26658535003662	4.58425331115723	4.87534427642822	-6.07469701766968	20.78501701354980	-5.51612043380737	-8.80911636352539	4.12682867050171	2.19568538665771	-19.45159339904785	-6.49615097045898	-2.63931655883789	3.99330759048462
CHEMBL4300	-15.05099487304688	6.51614141464233	-1.63988852500916	3.25314068794250	-11.23840236663818	-0.78419005870819	-0.94072431325912	3.10890531539917	-1.21642982959747	-14.13765335083008	-0.30060684680939	7.03080177307129	-5.24098157882690	-4.71526527404785	-1.60459828376770	16.92774009704590	-0.35522335767746	14.16280174255371	-5.76424455642700	4.78762769699097	11.03866291046143	2.13850498199463	-15.59851646423340	5.88903808593750	-22.91091537475586	-12.93631267547607	15.06167221069336	0.60683637857437	3.08526873588562	-17.13834762573242	0.77923166751862	2.18976426124573	8.51667308807373	-2.43277525901794	12.55165672302246	0.98618507385254	13.47166824340820	3.90704822540283	0.91273403167725	-0.92733007669449	-28.51847839355469	-14.25637817382812	-15.04888534545898	3.25473403930664	5.12832403182983	4.02683544158936	-7.24552822113037	-16.38031196594238	3.57500958442688	-5.90094900131226	-6.60928726196289	4.96682500839233	-0.90231060981750	-11.76543045043945	7.03688907623291	2.92127275466919	-0.20904254913330	-2.89576840400696	8.04155158996582	1.73910927772522	1.50446164608002	-7.49059629440308	1.73605632781982	-12.92803382873535	-10.35946083068848	9.24971961975098	5.73491859436035	-13.75483512878418	9.86107158660889	7.36028766632080	10.79761981964111	-6.23001098632812	-4.25131416320801	5.87798118591309	7.53170871734619	-5.68403625488281	1.51338672637939	11.07422447204590	-1.96081459522247	-10.50310611724854	-5.81784534454346	4.18816375732422	10.44915199279785	11.41753578186035	-11.43433666229248	7.82606887817383	-15.80845832824707	11.13973522186279	6.66621208190918	1.73384034633636	-7.31974506378174	21.68458938598633	-7.13961601257324	-8.57972145080566	5.19713449478149	5.85065412521362	-22.09839057922363	-7.49230480194092	-4.99944734573364	2.81409907341003
CHEMBL3286074	-16.74711227416992	4.72182512283325	-2.71942090988159	4.81128406524658	-10.59290790557861	2.63088083267212	-1.77807509899139	2.87990593910217	-5.22398996353149	-12.87086296081543	1.23303544521332	6.82309818267822	-2.86418962478638	-3.81911706924438	-1.30818784236908	14.35385417938232	1.00944113731384	12.59039497375488	-6.35433864593506	4.59003305435181	10.89410209655762	3.23814105987549	-16.61642837524414	6.20552206039429	-22.59616470336914	-16.39793395996094	16.67561721801758	0.96133071184158	6.02803039550781	-18.33543014526367	4.82838487625122	2.27791929244995	9.60396385192871	-2.30242538452148	12.19670772552490	-0.24711680412292	15.51622867584229	3.07103490829468	1.01253199577332	-2.80575799942017	-26.80118751525879	-12.30171298980713	-17.03308868408203	4.49077653884888	7.06494712829590	5.06760787963867	-10.70453357696533	-14.84448146820068	4.03649711608887	-5.71162652969360	-6.29110145568848	4.42096138000488	-1.93566656112671	-12.74386405944824	3.37577414512634	2.87293148040771	0.94669461250305	-1.69553184509277	3.89057874679565	2.34861111640930	0.87026721239090	-7.90522575378418	3.47443222999573	-10.23227405548096	-10.45504665374756	9.35822963714600	8.65313434600830	-11.65911102294922	9.36589050292969	4.67028427124023	10.90625953674316	-6.43135166168213	-3.36776542663574	3.12063384056091	7.68120574951172	-6.29850816726685	1.37693476676941	12.12373447418213	-0.48845559358597	-8.68055534362793	-5.15427541732788	1.39654517173767	10.10639953613281	7.07714080810547	-12.32663345336914	8.34814071655273	-15.64974308013916	11.38715553283691	5.94171190261841	2.24608325958252	-7.53579998016357	18.92581367492676	-5.36560201644897	-7.89730215072632	6.08093357086182	6.20220088958740	-24.29361724853516	-9.98093414306641	-6.66977071762085	3.30427360534668
CHEMBL2157	-15.79539775848389	7.28528642654419	-2.02344441413879	5.61338901519775	-10.30877017974854	3.19085597991943	1.11686444282532	4.22674322128296	-4.80336856842041	-13.57957744598389	0.84603697061539	6.14864730834961	-2.43712854385376	-5.20788621902466	-0.79886025190353	13.74934577941895	-1.19502925872803	11.07953071594238	-4.22326231002808	5.67764091491699	11.60334491729736	2.80464220046997	-18.55743789672852	6.75802707672119	-23.47107315063477	-14.93630313873291	17.37064743041992	2.73082041740417	5.05625724792480	-20.32103729248047	6.97682666778564	4.35048580169678	10.50554370880127	-1.50988578796387	15.10375976562500	-0.12306584417820	13.51766395568848	2.60748386383057	-0.79616093635559	-1.13898396492004	-30.47393226623535	-15.42862796783447	-17.34896087646484	5.49865865707397	5.11970710754395	6.14003038406372	-9.22620010375977	-14.56772422790527	5.37708902359009	-6.36806488037109	-7.21329784393311	3.41528940200806	-3.67146730422974	-13.02822685241699	4.64463710784912	4.76614427566528	-1.05122399330139	-1.35687923431396	3.99356937408447	3.03213882446289	0.29059547185898	-8.35011577606201	3.50271368026733	-11.54471015930176	-10.61593437194824	10.53285503387451	6.29063606262207	-11.53674507141113	8.85698509216309	5.15917968750000	10.70551490783691	-7.77559137344360	-2.25912737846375	3.51762628555298	7.81517505645752	-4.96303701400757	1.21633505821228	11.49995517730713	-0.22615748643875	-10.55493640899658	-7.71353626251221	0.39227753877640	8.00429916381836	8.11222076416016	-12.78414440155029	9.10144138336182	-18.43528175354004	12.34706115722656	8.44802474975586	2.82417297363281	-7.71262979507446	22.52270889282227	-5.83126544952393	-9.33121204376221	6.34098911285400	5.81564712524414	-28.45149040222168	-8.62164402008057	-6.08602428436279	1.23407852649689
CHEMBL1649052	-15.34852027893066	6.35043382644653	-3.46179628372192	4.35142660140991	-10.58249759674072	2.91956734657288	-1.20737814903259	4.12380838394165	-5.69099807739258	-11.58123683929443	1.66840434074402	4.07911968231201	0.11531734466553	-5.82866668701172	-0.94947063922882	14.16380119323730	-1.13656032085419	12.23549365997314	-5.28141307830811	5.11245727539062	10.43220138549805	3.95560479164124	-17.40119171142578	7.93578147888184	-22.49030876159668	-18.04684066772461	15.50959491729736	1.55082917213440	6.03948879241943	-18.34666633605957	5.68386745452881	4.91505622863770	8.95985412597656	-1.50001907348633	15.80309486389160	0.92324072122574	17.30716705322266	5.56747150421143	-0.85066837072372	-0.43373888731003	-29.67979812622070	-13.30320739746094	-19.88178825378418	5.41344976425171	7.75072669982910	6.45062208175659	-9.16538619995117	-14.73153495788574	5.31419610977173	-8.64843750000000	-5.51495361328125	7.55299568176270	-5.00708675384521	-11.99284362792969	5.25470829010010	2.63711833953857	-2.17064952850342	-2.41733527183533	2.69286394119263	4.65299367904663	-0.65326213836670	-4.92796707153320	3.09245252609253	-10.38600349426270	-10.55407810211182	9.58235931396484	8.74810409545898	-11.43143463134766	9.34720993041992	4.39694356918335	11.59426403045654	-5.96727466583252	-2.11238241195679	3.60573935508728	7.51862478256226	-8.01910877227783	0.09318965673447	15.43846035003662	-1.43134427070618	-10.53694248199463	-5.50868225097656	-0.16746972501278	10.36462688446045	6.33679056167603	-11.01428604125977	10.99149990081787	-21.23089218139648	12.25591659545898	9.45930480957031	2.63377499580383	-7.47593879699707	19.95003890991211	-3.80539250373840	-7.45787334442139	8.50527667999268	5.22567367553711	-28.73827362060547	-9.09595203399658	-7.05242824554443	1.84126543998718
CHEMBL2010624	-17.10660552978516	4.92999792098999	-2.18813133239746	5.14214324951172	-11.99940681457520	2.62369966506958	-1.69426977634430	3.54615592956543	-3.38540840148926	-14.26698112487793	0.78715646266937	10.32731056213379	-4.29018020629883	-3.88473534584045	-2.11375522613525	18.43665313720703	-0.36298003792763	15.57602882385254	-6.27546405792236	4.66123104095459	11.40249061584473	4.24258470535278	-20.22275543212891	6.07315826416016	-25.40257072448730	-14.78883838653564	19.78824043273926	-0.20691968500614	6.06294441223145	-22.22676658630371	4.80641937255859	1.67954659461975	10.71549129486084	-2.50520515441895	17.00366973876953	-0.47396263480186	17.77521324157715	3.45421409606934	-1.64647042751312	-2.94013786315918	-31.04145812988281	-13.61344146728516	-18.71063995361328	6.64648628234863	5.70256710052490	6.21740341186523	-9.30295562744141	-16.07859802246094	3.57321596145630	-8.71726036071777	-9.44300174713135	5.06732749938965	-2.03739666938782	-14.45750999450684	6.62987041473389	3.50262880325317	0.25687456130981	-3.27962446212769	4.62501001358032	1.43177986145020	1.58366727828979	-6.38719367980957	2.23131752014160	-15.13536643981934	-11.34555912017822	10.75602245330811	6.42014884948730	-14.31619167327881	9.67419433593750	6.71362876892090	13.42763233184814	-7.14908790588379	-2.99486398696899	6.37007665634155	8.20397567749023	-7.34163379669189	0.96082371473312	13.18941020965576	-2.41094684600830	-11.35578632354736	-5.50798416137695	0.23253491520882	9.83129882812500	10.49139785766602	-13.11041450500488	9.14671516418457	-18.02125549316406	14.15905761718750	6.34563159942627	1.84133815765381	-7.23088073730469	21.55467224121094	-6.80462980270386	-9.42801570892334	7.15813064575195	6.98659896850586	-26.25336074829102	-9.47483539581299	-5.70063209533691	1.42221403121948
CHEMBL1902	-14.50361824035645	5.91953468322754	-1.91726171970367	7.37481689453125	-12.92719841003418	5.24967575073242	2.35960817337036	5.98889923095703	-5.84416580200195	-12.40630912780762	-0.30052769184113	6.10543632507324	-1.51719617843628	-3.21045207977295	1.35994446277618	15.93510818481445	-2.24373626708984	14.91178131103516	-3.74549889564514	4.53347301483154	11.06246757507324	5.39439296722412	-20.03435516357422	7.08386468887329	-26.65838623046875	-19.58687973022461	19.47019958496094	4.16847515106201	3.27755784988403	-23.93425559997559	5.39930057525635	6.15730476379395	10.49794673919678	-1.61373043060303	16.89395141601562	2.04748249053955	14.52859973907471	4.47347831726074	0.52100116014481	1.84214770793915	-33.84519958496094	-17.14041900634766	-21.10046768188477	7.27779865264893	3.34581995010376	6.21137714385986	-10.44614219665527	-17.34425354003906	7.59525680541992	-7.43220138549805	-3.08715295791626	7.77551174163818	-1.32075536251068	-13.21070575714111	3.47336483001709	3.01953172683716	2.00416159629822	-1.04089152812958	7.62956237792969	5.79718494415283	1.78322613239288	-5.82031059265137	6.79506731033325	-13.98498725891113	-11.99701213836670	11.95761489868164	9.05267620086670	-12.47894763946533	10.05992507934570	3.26963949203491	12.02027797698975	-7.62264490127563	1.55779170989990	4.14721202850342	9.22855949401855	-8.07080364227295	2.41929626464844	12.91060829162598	-0.01382058858871	-12.94273281097412	-3.96095800399780	0.22689092159271	8.78153991699219	11.30493259429932	-10.58353805541992	10.45296382904053	-20.00879669189453	12.55255317687988	8.56464958190918	3.61811447143555	-9.65885066986084	25.46924018859863	-3.16839933395386	-11.77625274658203	6.70449161529541	6.26723861694336	-29.51286888122559	-10.57127857208252	-4.84502887725830	4.05795192718506
CHEMBL2430	-14.69759273529053	5.95188093185425	-2.73457527160645	6.01248407363892	-13.13075256347656	5.71356058120728	1.33710777759552	5.05127239227295	-5.50369215011597	-12.31897544860840	0.61770695447922	7.34281063079834	-2.49517631530762	-2.12745618820190	0.63334298133850	15.82654762268066	-2.86918115615845	15.57335853576660	-5.37157297134399	3.73956775665283	9.89108848571777	5.64997196197510	-20.98892211914062	7.48135948181152	-27.08474159240723	-19.88026428222656	19.90407562255859	4.22949600219727	4.03038787841797	-23.83504867553711	4.50158309936523	4.82872724533081	9.81500053405762	-1.02538537979126	16.77640533447266	1.28080272674561	15.74432754516602	4.27746868133545	-0.32109791040421	0.47449186444283	-34.27272796630859	-15.72549247741699	-21.95759582519531	5.86019706726074	2.75503945350647	7.15533733367920	-9.69995975494385	-16.49380111694336	7.53566646575928	-8.01852226257324	-5.33719158172607	6.90943431854248	-0.80732482671738	-14.25566196441650	5.12234783172607	1.42318701744080	1.63175499439240	-2.18051910400391	6.86757946014404	4.19181442260742	0.53517937660217	-7.10284948348999	5.29599857330322	-14.05510997772217	-12.52563285827637	11.76839065551758	7.83861446380615	-14.66152572631836	11.16349887847900	3.80443716049194	12.48235702514648	-6.75480461120605	1.52656328678131	4.36228561401367	9.20854377746582	-8.99950313568115	2.10388159751892	13.73385810852051	-0.56546449661255	-11.75012111663818	-3.05820369720459	-0.35273733735085	8.20598316192627	9.93816566467285	-11.28932857513428	11.06073856353760	-18.77420997619629	13.61486625671387	8.48288631439209	4.09459066390991	-9.42169857025146	24.98611068725586	-6.05868959426880	-12.35217094421387	6.02669239044189	5.61027097702026	-29.25650024414062	-9.87352371215820	-5.24775791168213	5.26278972625732
CHEMBL1795168	-17.83117866516113	5.74124240875244	-3.38477659225464	6.87062454223633	-12.27668762207031	1.47014081478119	0.86081308126450	4.33842182159424	-4.11730861663818	-13.66079998016357	-0.15814888477325	7.20512580871582	-1.95852136611938	-3.95732021331787	-0.60342884063721	16.92054367065430	-1.06930661201477	14.86199951171875	-6.76046943664551	7.49991130828857	12.55873298645020	5.36340284347534	-18.83197784423828	5.76115226745605	-26.76859855651855	-17.26788711547852	20.52383232116699	1.53275632858276	5.32675266265869	-22.82601928710938	4.90831089019775	3.38917589187622	10.05428791046143	0.39850538969040	15.42463111877441	-1.09272062778473	17.13869667053223	6.27283287048340	-0.63752007484436	-4.00939273834229	-33.12297821044922	-14.69110107421875	-20.56491470336914	5.69644117355347	5.31496334075928	7.53095293045044	-11.51715087890625	-17.79157638549805	4.77286577224731	-7.68584728240967	-7.41703414916992	6.70721244812012	-2.62120628356934	-13.94025802612305	5.91434288024902	2.37302088737488	1.36550736427307	-2.49020481109619	7.31854629516602	2.50433635711670	-0.44059628248215	-4.70636892318726	5.60425233840942	-13.76912879943848	-14.10885715484619	11.62602424621582	8.24155235290527	-15.04073143005371	10.57560825347900	5.67889928817749	14.23257064819336	-8.16360950469971	0.68836379051208	4.49527978897095	7.58296728134155	-7.15642070770264	-0.54164975881577	14.76482486724854	-0.12249742448330	-10.48572444915771	-2.33658027648926	-1.13337802886963	8.14958953857422	10.30123424530029	-15.36953926086426	9.95463466644287	-20.06132888793945	12.11921024322510	6.99505805969238	3.31930470466614	-10.36169910430908	22.73866844177246	-5.64567041397095	-11.91791534423828	7.68578910827637	7.11668586730957	-27.84449195861816	-12.32722663879395	-5.52499914169312	3.13288903236389
CHEMBL2085	-18.04169082641602	8.85875225067139	-2.28015375137329	5.68650054931641	-12.22178459167480	4.69404315948486	1.49019455909729	6.03196477890015	-8.80339813232422	-11.93952274322510	0.15224373340607	6.91812705993652	-2.65019273757935	-2.91849827766418	-1.55343341827393	14.75661945343018	-1.79192972183228	15.83940792083740	-6.31084060668945	5.44982099533081	9.15272331237793	4.55531978607178	-20.93744659423828	10.74161338806152	-27.29022979736328	-22.97321319580078	17.81901359558105	2.66395521163940	7.89184331893921	-23.80030059814453	6.34604215621948	5.57517862319946	10.39962768554688	-1.40994441509247	19.01813316345215	1.34066939353943	15.22943019866943	4.89611625671387	-2.13460302352905	-1.42866325378418	-32.70217132568359	-16.58624649047852	-24.41448593139648	8.14329433441162	7.67048835754395	7.48532295227051	-13.88078403472900	-18.20207023620605	7.59074211120605	-12.65459251403809	-3.31080651283264	10.31884002685547	-2.02261018753052	-15.63453578948975	2.08555221557617	5.49625110626221	0.40502685308456	1.33202278614044	3.98514366149902	8.62411689758301	-0.48829469084740	-6.91133451461792	6.21378946304321	-9.89363193511963	-12.85125732421875	10.71111679077148	9.22450065612793	-12.14406394958496	13.69698333740234	2.70489239692688	9.83760452270508	-7.27864742279053	-0.53300821781158	5.55054473876953	8.67304325103760	-10.87649726867676	-0.63713210821152	15.86505031585693	-0.89218807220459	-12.39567565917969	-4.80122709274292	-1.63456726074219	10.65728282928467	7.84315681457520	-12.67574596405029	12.90820312500000	-20.77426528930664	14.77513122558594	8.71092796325684	3.62936353683472	-12.33272266387939	21.89146041870117	-4.01792716979980	-10.65472984313965	9.87166213989258	5.87443637847900	-34.99290084838867	-10.62594795227051	-7.59783267974854	2.83728694915771
CHEMBL4879518	-19.51700973510742	9.13729190826416	-2.15083408355713	3.63149690628052	-11.83204269409180	2.51147413253784	-1.01790642738342	7.45656490325928	-6.68882656097412	-16.18481063842773	1.57966327667236	9.51665210723877	-4.10142564773560	-5.58909082412720	-2.11128973960876	20.10503005981445	0.53248167037964	16.40621948242188	-5.85433721542358	6.89325141906738	14.40861034393311	4.24042654037476	-20.96192359924316	7.98627662658691	-27.37379837036133	-19.95332717895508	20.80803298950195	-0.81436979770660	6.16842222213745	-23.71142959594727	1.55652141571045	3.65501689910889	8.90986633300781	-2.73448514938354	17.41974067687988	1.77077317237854	18.14669609069824	7.17416000366211	0.91340750455856	-0.31535232067108	-37.77934646606445	-17.24018096923828	-20.45834350585938	5.29319810867310	6.34509181976318	6.68708515167236	-11.85861206054688	-18.95601844787598	5.11278057098389	-12.02060031890869	-7.08285951614380	5.94755744934082	-2.82555055618286	-16.54098892211914	4.38645267486572	3.83603382110596	0.55590295791626	0.97803092002869	9.26358032226562	5.86668634414673	4.30197000503540	-6.96970129013062	6.03503084182739	-13.52336025238037	-15.40994644165039	12.10579967498779	9.54897880554199	-15.23295593261719	16.59797477722168	6.95721387863159	13.12650299072266	-8.95415115356445	-3.99814033508301	6.71948623657227	9.03380870819092	-9.04067707061768	-2.04342222213745	17.44612312316895	-0.37718006968498	-12.39730072021484	-7.63475322723389	3.96740436553955	14.01093387603760	11.44180488586426	-14.46683025360107	12.57686328887939	-22.27319335937500	13.17990303039551	11.17131233215332	4.39592790603638	-10.28629398345947	28.57336425781250	-4.82767391204834	-8.84851837158203	10.30088233947754	4.54945039749146	-32.87441635131836	-8.66046333312988	-7.82180261611938	3.52172255516052
CHEMBL4879514	-20.13832855224609	7.89778995513916	-2.83900880813599	2.93088436126709	-12.58669853210449	2.51239442825317	0.03479576110840	7.14423847198486	-6.36114788055420	-17.03805732727051	1.94056344032288	10.16114616394043	-4.08707237243652	-5.96444749832153	-2.53141355514526	20.62583351135254	1.96339368820190	17.95060348510742	-5.85058021545410	6.41931009292603	15.10585784912109	3.23719739913940	-21.56805419921875	9.09209632873535	-28.96572113037109	-20.45949745178223	22.44357681274414	-1.90816700458527	5.97585010528564	-24.82009124755859	1.47985422611237	2.52787518501282	10.42393684387207	-1.93860399723053	18.60472106933594	0.66623860597610	18.97969055175781	6.84203243255615	-0.79535388946533	-1.77949309349060	-39.50157165527344	-18.50670433044434	-21.08587074279785	5.36408472061157	8.11272716522217	8.36316871643066	-12.35464191436768	-19.51754570007324	4.01967811584473	-10.58745765686035	-7.39413642883301	7.58233928680420	-4.31135177612305	-16.44745254516602	5.64847660064697	3.12621021270752	1.79446792602539	-0.27464371919632	10.13225936889648	5.00988292694092	4.09133768081665	-7.16562271118164	5.40005016326904	-14.94230079650879	-17.28754806518555	13.04040908813477	9.23932361602783	-17.63169097900391	15.60509872436523	9.04900932312012	13.51193237304688	-8.39622020721436	-4.29882383346558	6.92347049713135	8.51093673706055	-8.90935897827148	-3.08080577850342	16.76298522949219	-0.45335632562637	-14.30807113647461	-7.72458696365356	4.51629829406738	13.81451416015625	12.42525291442871	-15.54003524780273	10.82557487487793	-22.41558265686035	13.16180706024170	12.03066349029541	4.33345460891724	-9.63751411437988	28.94774246215820	-5.27649211883545	-10.58941459655762	9.16924953460693	3.75718545913696	-31.37249755859375	-8.62932014465332	-6.38372564315796	4.55664014816284
CHEMBL5169200	-17.56520843505859	7.82801389694214	-0.70450711250305	5.39100933074951	-15.43660449981689	3.06239795684814	0.60678684711456	4.66934251785278	-3.29567146301270	-13.97121429443359	-1.01910614967346	8.30171394348145	-5.16398811340332	-3.57038354873657	-0.58952558040619	19.19551086425781	-3.00476217269897	16.82468414306641	-6.39033269882202	7.36946964263916	10.07926845550537	3.69403505325317	-22.21988487243652	7.31926155090332	-31.01965332031250	-21.52280807495117	20.62124061584473	4.75026082992554	3.46647834777832	-25.93433761596680	5.63974046707153	6.66254425048828	12.27169704437256	-2.48181581497192	20.02620315551758	-0.22971469163895	17.63158988952637	4.26195096969604	-0.65124684572220	-0.78307068347931	-41.87306976318359	-19.30883407592773	-21.57391738891602	5.96596240997314	4.61081886291504	6.16154861450195	-14.98407649993896	-18.23418998718262	8.78119373321533	-12.19498062133789	-7.76966285705566	9.40770530700684	-2.13551807403564	-15.48272132873535	5.87773942947388	2.93282628059387	1.28730797767639	-1.63619124889374	7.34363555908203	4.24862575531006	1.39637529850006	-8.61763477325439	6.43665075302124	-16.74826049804688	-15.20806121826172	11.75859642028809	11.13393020629883	-15.41587162017822	13.06023597717285	5.70848846435547	15.63577270507812	-6.00720977783203	1.18485271930695	4.34296369552612	11.33903503417969	-8.72781562805176	3.17929673194885	14.07273101806641	0.68025279045105	-13.45093727111816	-6.42986440658569	2.20364832878113	7.93595027923584	12.01253890991211	-14.18139266967773	11.31561374664307	-22.23118400573730	17.46830749511719	9.87409591674805	3.93852972984314	-11.16113471984863	27.68836593627930	-8.63789749145508	-10.72302818298340	8.75871276855469	6.72342777252197	-33.56690597534180	-9.98471164703369	-7.57950735092163	3.07260465621948
CHEMBL4295686	-19.81896972656250	9.64919853210449	0.15015637874603	6.49395656585693	-12.40627670288086	8.58880519866943	6.44966506958008	6.49721431732178	-9.33825683593750	-12.78916358947754	-0.27855840325356	6.09285402297974	0.21041056513786	-8.08309841156006	-0.76336669921875	19.07692718505859	-2.14726305007935	13.72515583038330	-5.52081584930420	6.47754335403442	13.25617218017578	4.69871950149536	-18.11322593688965	11.41733455657959	-30.83531570434570	-26.31448364257812	19.97819328308105	-0.62735003232956	8.73748779296875	-24.97186660766602	7.55160760879517	8.62803840637207	11.97294712066650	-0.09804216027260	20.29586601257324	2.36916351318359	15.31736946105957	4.81690025329590	-0.82591128349304	0.58531856536865	-35.77087020874023	-21.38512992858887	-29.40605163574219	7.95956277847290	5.43030309677124	6.99284982681274	-15.62766838073730	-20.15875434875488	8.67190170288086	-5.51526260375977	-2.61905598640442	12.25551033020020	-4.82612991333008	-15.61202049255371	1.01736283302307	6.82795619964600	0.64604294300079	2.28144574165344	4.24445962905884	7.66139745712280	-0.43979007005692	-7.46058797836304	6.30757808685303	-13.43439483642578	-14.56460762023926	11.81962680816650	8.67847633361816	-10.40016746520996	10.34399700164795	4.03076934814453	10.28705406188965	-8.39963912963867	-0.65416067838669	2.43322134017944	10.40300655364990	-5.85762023925781	-1.94497132301331	15.89335823059082	-1.19482302665710	-14.63575935363770	-3.54991745948792	-0.82900500297546	7.41086769104004	9.98653125762939	-13.58853816986084	16.01094818115234	-25.08436965942383	14.22913360595703	13.00691127777100	4.74948120117188	-13.70464897155762	30.01726913452148	-3.56593084335327	-12.23261451721191	11.98890113830566	7.67655086517334	-40.34108734130859	-11.81826591491699	-12.62975120544434	2.81154394149780
CHEMBL5421	-19.08691406250000	6.76104450225830	-5.37566137313843	3.87974977493286	-13.85279273986816	0.31936025619507	-0.89746463298798	5.80966091156006	0.39378115534782	-18.82826614379883	2.04721689224243	12.94898986816406	-4.83375215530396	-3.77840352058411	1.27751147747040	22.78734016418457	-0.11852085590363	17.70344161987305	-9.48438262939453	8.43971061706543	13.22480392456055	3.66810226440430	-25.38309860229492	8.75628185272217	-29.74280166625977	-20.74724960327148	23.91078567504883	-1.22588014602661	5.53482723236084	-25.75729942321777	0.64258283376694	0.28568705916405	13.27266502380371	-2.97587394714355	19.30492401123047	-0.23930594325066	23.02248764038086	8.39448070526123	-0.96744179725647	-7.09703254699707	-38.73596191406250	-18.32815170288086	-22.14341545104980	4.87515735626221	8.66625022888184	9.21139335632324	-8.91878032684326	-21.09125137329102	1.65090250968933	-12.02460575103760	-9.68231678009033	7.60891962051392	-1.14932799339294	-19.24824333190918	9.03603553771973	3.06960177421570	-1.76549315452576	-3.42788457870483	12.38015937805176	2.42196464538574	1.70094633102417	-6.84595060348511	4.39313936233521	-18.35548591613770	-15.86080265045166	14.91371536254883	6.67208766937256	-20.74525070190430	15.46198081970215	10.36367321014404	15.38569164276123	-5.04286813735962	-5.86646652221680	7.63783073425293	9.11958885192871	-13.71798324584961	2.26678180694580	15.97399711608887	-1.29695272445679	-11.42389106750488	-8.25190544128418	3.70852065086365	14.62652683258057	11.47647857666016	-15.61527729034424	12.81986045837402	-21.13391876220703	13.68554115295410	8.32900619506836	3.79829216003418	-9.51151084899902	26.75049972534180	-6.95396900177002	-15.13369941711426	8.25182151794434	4.21811866760254	-30.25347137451172	-11.26399898529053	-4.36467885971069	7.33175754547119
CHEMBL5293	-23.33354759216309	6.19267702102661	-3.04246377944946	8.40491867065430	-16.62179946899414	8.19356155395508	2.85049200057983	5.89580965042114	-11.82229900360107	-15.08222484588623	-0.99719935655594	5.24087524414062	-3.71501302719116	-8.02141189575195	-2.78540658950806	16.25486373901367	-0.91725242137909	16.63441658020020	-3.87539911270142	4.14680767059326	16.51601028442383	6.15513944625854	-19.45051956176758	9.42873764038086	-31.48890876770020	-19.90019798278809	17.86839675903320	1.96449661254883	4.61175155639648	-26.17113876342773	6.81861066818237	10.12191390991211	12.06340026855469	-0.67612206935883	22.52472686767578	4.50862216949463	15.36927795410156	4.60833549499512	-1.55477774143219	4.15960407257080	-37.95399475097656	-18.42219543457031	-28.28067970275879	6.49600839614868	6.40848064422607	6.61845874786377	-14.69029426574707	-16.92567825317383	9.22187900543213	-11.29880905151367	-2.09255671501160	8.72194766998291	-3.25597739219666	-14.65357303619385	2.40964841842651	6.43622732162476	0.06897981464863	-0.52939724922180	6.50937271118164	7.81123924255371	1.05623054504395	-8.56013107299805	6.01746082305908	-13.26341152191162	-12.25984382629395	11.63045120239258	8.84840965270996	-10.74394607543945	13.14724540710449	1.02594029903412	10.72358322143555	-9.72325134277344	-1.83783733844757	2.77372431755066	9.37639045715332	-8.08488178253174	-0.14687740802765	17.39795494079590	-1.94412553310394	-13.73991584777832	-7.51997470855713	1.09510087966919	11.18089580535889	12.72595405578613	-15.71293735504150	13.26798057556152	-27.26045608520508	14.86297798156738	11.68942832946777	4.85518121719360	-12.63796997070312	30.12463760375977	-4.84660911560059	-9.19443702697754	11.47884178161621	7.17579364776611	-41.68531799316406	-10.05939102172852	-7.27489614486694	0.07531219720840
CHEMBL4523235	-17.79139709472656	7.23765516281128	-3.72106504440308	4.56718158721924	-14.37551307678223	3.08978509902954	2.58141016960144	4.94530296325684	-1.49907493591309	-15.81180095672607	1.92102432250977	12.38645172119141	-4.22692298889160	-4.41930961608887	1.75715184211731	22.09908676147461	-2.34740638732910	17.36378669738770	-9.03734302520752	8.58651351928711	13.40781879425049	6.54834747314453	-25.33306884765625	7.46324253082275	-30.78662681579590	-22.81521224975586	21.42248916625977	1.06824278831482	4.48625612258911	-27.22101211547852	0.82692325115204	4.39735889434814	11.33027076721191	-4.67363023757935	20.88771820068359	-0.94175183773041	19.36379814147949	8.01726055145264	0.12043228745461	-5.34099435806274	-40.19438171386719	-18.97849655151367	-23.24489212036133	7.54604768753052	7.99813747406006	8.19121742248535	-12.30363845825195	-21.15148544311523	5.00306034088135	-11.17766952514648	-6.47845554351807	11.16258525848389	-2.12439632415771	-18.62947463989258	9.45140552520752	2.05268836021423	-1.75885868072510	-2.15154504776001	10.53131198883057	6.31779479980469	1.69511651992798	-8.93197631835938	7.33508968353271	-18.78777313232422	-17.01895332336426	14.27043342590332	7.36895084381104	-19.64431571960449	15.53771972656250	10.25127983093262	15.85869121551514	-5.59040927886963	-1.47275030612946	5.54094743728638	9.73538684844971	-13.42669296264648	2.42058086395264	16.82700157165527	-1.79426205158234	-12.34847068786621	-6.23934650421143	2.50821924209595	13.65969657897949	11.71814060211182	-17.49719429016113	12.16129302978516	-21.35920524597168	13.83903217315674	10.00809669494629	4.92148542404175	-10.67580223083496	27.90443992614746	-6.02769041061401	-16.52230262756348	9.41199016571045	5.35312080383301	-30.49193191528320	-10.93669509887695	-3.05853533744812	3.70553517341614
CHEMBL4879	-19.06793212890625	7.87242221832275	-3.61213159561157	4.78455495834351	-16.10202026367188	1.61512899398804	1.06468999385834	4.45102548599243	-2.62151718139648	-19.03311538696289	0.75643277168274	10.94275379180908	-3.83116769790649	-4.45055770874023	0.55577683448792	22.83518218994141	-1.04039001464844	16.77393341064453	-9.18209171295166	7.82820320129395	15.82248592376709	5.45836734771729	-24.56804656982422	10.69376182556152	-31.18214035034180	-23.43305206298828	24.10917663574219	1.58480882644653	4.67660427093506	-26.43404006958008	3.73419475555420	2.53646659851074	12.70597076416016	-3.29620361328125	17.81387710571289	0.57847332954407	21.18284988403320	7.80157184600830	-1.25425577163696	-3.98557043075562	-43.16688156127930	-21.52691841125488	-23.04180145263672	7.88351917266846	8.40886211395264	9.26134872436523	-10.48469924926758	-22.30641555786133	3.86725163459778	-10.36039257049561	-7.37544727325439	10.51259708404541	-1.96830606460571	-16.88776016235352	10.28573226928711	2.29972505569458	-0.18825738132000	0.67739534378052	11.74981117248535	1.13030576705933	2.61541914939880	-8.04465293884277	3.64676070213318	-19.87111663818359	-16.15542030334473	14.73942375183105	8.77217578887939	-23.14083290100098	13.30010986328125	10.93797492980957	17.08393859863281	-7.66615772247314	-4.82766246795654	9.60428905487061	11.23876094818115	-12.09883117675781	0.52854251861572	17.03209304809570	0.60372710227966	-14.84207820892334	-6.64061403274536	3.52735352516174	13.31985282897949	13.77112388610840	-16.62803077697754	11.61568927764893	-20.65172576904297	15.25632286071777	7.73048400878906	3.16206073760986	-8.93045616149902	28.59212303161621	-9.66563606262207	-17.17905044555664	8.41680335998535	5.42392253875732	-28.70918273925781	-13.18537425994873	-3.43370246887207	7.03392553329468
CHEMBL2083	-20.30580902099609	8.18432426452637	-4.49732208251953	6.53144073486328	-17.10527610778809	2.94422888755798	3.13632965087891	5.99193859100342	-3.30682420730591	-16.65873908996582	-0.01346123218536	9.62044143676758	-1.28659653663635	-2.02139425277710	-2.22276234626770	19.71997070312500	-0.61271703243256	16.97475051879883	-7.54991054534912	8.27861309051514	16.09977340698242	4.36499500274658	-23.38527488708496	8.81741333007812	-33.72426986694336	-23.05400276184082	23.41296195983887	1.13840866088867	7.53861331939697	-27.31389427185059	4.67264413833618	7.81200170516968	12.84683227539062	-1.59022164344788	21.03425216674805	0.50391107797623	22.30302238464355	10.27877235412598	-2.68783855438232	-5.34983539581299	-41.48545455932617	-19.90592193603516	-24.19184303283691	7.29342889785767	8.94426727294922	8.48637771606445	-12.17625236511230	-20.40467453002930	2.60488653182983	-9.71272087097168	-7.92380905151367	11.99282169342041	-3.23434019088745	-18.15067291259766	7.97422075271606	1.86217367649078	0.04849651455879	-0.63856303691864	9.69097900390625	6.08003807067871	1.32410037517548	-4.88505744934082	2.23195314407349	-17.05003929138184	-16.03563499450684	16.08240127563477	9.86721706390381	-18.67128372192383	12.66325569152832	10.11009597778320	16.22932815551758	-8.06033706665039	-1.26089286804199	7.04063606262207	9.09628772735596	-12.67915821075439	-0.12144064903259	15.26257419586182	1.64211988449097	-13.36122512817383	-6.43987607955933	0.92089408636093	10.05930900573730	11.50767993927002	-16.43287086486816	11.56128025054932	-24.21780204772949	12.88998508453369	8.73426151275635	5.06855249404907	-11.76017475128174	28.86053085327148	-3.79104685783386	-16.54159164428711	10.17948818206787	6.89347076416016	-31.88957595825195	-13.88989257812500	-5.59583520889282	6.61101055145264
CHEMBL3344	-19.40049171447754	8.12318420410156	-4.20531129837036	3.32514286041260	-15.03493976593018	2.02010321617126	3.81899070739746	4.47959756851196	-5.28488540649414	-15.94163703918457	3.34682869911194	9.09308815002441	-3.00879621505737	-5.66905927658081	-1.75814747810364	22.89593124389648	-1.95442414283752	16.95506286621094	-8.49757194519043	9.76116371154785	15.90771293640137	5.12917518615723	-24.72265243530273	9.30494785308838	-33.67072296142578	-22.60788536071777	25.55453681945801	0.49463903903961	8.12683486938477	-24.08025169372559	5.05623006820679	5.84645938873291	11.74884891510010	-3.54210638999939	20.34481430053711	0.40597969293594	21.49385261535645	8.50443935394287	-1.84893429279327	-5.00369548797607	-40.06322479248047	-21.30916023254395	-22.05218696594238	7.95131587982178	8.97727870941162	8.12719535827637	-12.01500034332275	-21.09954071044922	5.66776275634766	-9.28474807739258	-7.03087806701660	11.10511016845703	-5.62320137023926	-18.74083328247070	8.84537124633789	2.54241251945496	0.95843750238419	-0.84330815076828	9.25244522094727	5.17461061477661	2.02656865119934	-6.30328750610352	2.76452040672302	-17.78841972351074	-16.04705619812012	14.83402538299561	11.08025360107422	-18.10107994079590	14.15798377990723	10.25607872009277	14.55204105377197	-9.51730155944824	-3.85007286071777	5.86502933502197	10.51961517333984	-12.90704345703125	-0.04242223501205	15.98484611511230	-0.00142329931259	-13.53425025939941	-5.89796304702759	0.58368533849716	10.75580596923828	11.04494857788086	-15.91950035095215	11.22727966308594	-23.90908622741699	15.39913177490234	8.49752140045166	4.75908374786377	-10.64005088806152	28.21212387084961	-6.11346673965454	-15.79394817352295	11.81157875061035	7.15849781036377	-33.44725036621094	-12.07420444488525	-6.77156639099121	5.14401435852051
CHEMBL4915	-22.88723945617676	10.50979804992676	-1.82099294662476	4.74351692199707	-16.90893936157227	4.09078884124756	-0.62855172157288	4.90768718719482	-5.22026968002319	-14.44578552246094	2.04260158538818	10.58745765686035	-4.26080989837646	-2.09384179115295	0.46667352318764	20.10738372802734	-2.49843668937683	15.67459869384766	-7.48094177246094	8.62366771697998	13.62639999389648	5.72270107269287	-23.89898681640625	8.60979461669922	-30.01720428466797	-23.33453941345215	23.43835067749023	6.25349330902100	7.42629718780518	-26.71843719482422	6.97853040695190	4.00079011917114	13.50773620605469	-2.79691743850708	18.95144844055176	-1.49272203445435	18.42243957519531	5.07123470306396	0.28330743312836	-0.87743985652924	-41.44677734375000	-20.46227264404297	-25.65261077880859	9.84470367431641	8.79341888427734	8.53105926513672	-15.88269138336182	-23.91831016540527	7.28642797470093	-10.20443725585938	-5.74357414245605	10.93679714202881	-3.77426552772522	-17.47346496582031	6.58384609222412	3.55733275413513	1.19893562793732	0.68795186281204	6.38558959960938	3.74234056472778	0.28747767210007	-10.27197074890137	6.68855190277100	-15.68278408050537	-13.61256980895996	15.98858547210693	12.08401679992676	-17.57436752319336	13.07167625427246	5.85894393920898	17.11472320556641	-8.47172927856445	-0.08125579357147	4.86187887191772	9.90247344970703	-9.68184661865234	1.58680486679077	17.03135108947754	-1.73198461532593	-12.65297508239746	-5.18698835372925	-1.65243887901306	10.63504123687744	11.53016090393066	-18.35898590087891	12.95326423645020	-24.52687263488770	17.84995841979980	7.76953315734863	2.79984688758850	-11.14818096160889	30.28227615356445	-7.74271965026855	-13.68200683593750	8.71332454681396	9.27903747558594	-36.60603332519531	-14.55353736877441	-9.52541542053223	1.56743490695953
CHEMBL3674	-21.08581542968750	6.14278030395508	-3.59581851959229	8.40181636810303	-16.60385131835938	3.51842260360718	0.11998862028122	3.90144157409668	-4.57404375076294	-15.24897956848145	1.04015243053436	11.90132427215576	-2.95148038864136	-4.38811969757080	0.86094164848328	21.57681846618652	-4.70611858367920	18.36045837402344	-9.25357246398926	8.12703132629395	15.77700042724609	7.25891590118408	-26.42817687988281	8.00632762908936	-34.01806259155273	-18.70532608032227	23.31580734252930	4.58433866500854	5.77356481552124	-26.12411499023438	4.12046527862549	3.03101253509521	14.37493705749512	-2.36841964721680	19.20733642578125	0.73235362768173	21.47759628295898	5.09127521514893	-2.98800230026245	-3.53072071075439	-42.05148696899414	-17.75429916381836	-23.33731651306152	7.07269954681396	9.54397296905518	10.25932312011719	-12.23956298828125	-18.60061645507812	5.73915004730225	-10.65387630462646	-7.57507038116455	9.44067382812500	-6.15360164642334	-19.16884994506836	9.17231559753418	5.40778589248657	0.30985912680626	-2.49105787277222	6.00309514999390	4.81404447555542	3.10719299316406	-6.86075401306152	3.72064900398254	-18.61017227172852	-15.78378105163574	14.26882743835449	8.54718303680420	-16.83772468566895	15.75055599212646	7.30409479141235	17.69412803649902	-8.32611560821533	-3.32743740081787	5.13564777374268	11.37949752807617	-11.30205249786377	1.05431830883026	17.45891952514648	-1.02552425861359	-13.69393348693848	-8.19864940643311	-0.62534642219543	12.76607036590576	11.92462158203125	-14.70184707641602	13.34350872039795	-26.94770431518555	17.74250984191895	7.97642946243286	4.18451976776123	-10.94183158874512	31.32934188842773	-9.12020492553711	-12.32119750976562	8.29631614685059	9.06243133544922	-37.96761322021484	-13.47415351867676	-5.03830194473267	6.03059053421021
CHEMBL4523399	-20.84115219116211	8.26127433776855	-3.86219739913940	5.88084268569946	-11.83574581146240	4.77428007125854	-1.20709776878357	6.26504373550415	-8.77228546142578	-17.37219429016113	1.43309688568115	12.11698150634766	-2.76341152191162	-7.75643157958984	-2.43968224525452	20.24627876281738	-1.11900055408478	17.14974212646484	-6.51211404800415	5.73457527160645	16.79509353637695	4.36478757858276	-21.38752746582031	9.67962360382080	-31.92690277099609	-24.34584426879883	23.00748252868652	-0.67387086153030	6.58101415634155	-28.34119033813477	5.37219333648682	2.30724596977234	12.00929832458496	-1.29170072078705	19.34483909606934	1.53255343437195	19.06060218811035	7.88797187805176	-0.04168438911438	-2.93951940536499	-41.80793762207031	-19.62247467041016	-25.96974182128906	7.36067485809326	9.70536613464355	7.67398548126221	-13.48344802856445	-21.97417831420898	5.33016967773438	-10.42973804473877	-8.43700599670410	8.29418754577637	-4.39451217651367	-16.89169692993164	4.86624526977539	5.96319627761841	-1.04203367233276	-1.18876492977142	8.42516422271729	4.30107975006104	1.18430471420288	-7.31881523132324	4.58355140686035	-17.68306159973145	-14.77425956726074	14.45321464538574	8.22285461425781	-18.89200401306152	13.46952438354492	5.64634704589844	14.95232391357422	-9.13345527648926	-3.73912191390991	7.43393325805664	8.98479843139648	-10.98199939727783	-0.46958684921265	17.70082855224609	-0.09391173720360	-14.86243057250977	-8.47828197479248	1.10391664505005	12.85352516174316	11.27870559692383	-16.39802360534668	15.32186412811279	-25.83264541625977	16.16272735595703	11.45729255676270	4.92756843566895	-9.53408718109131	29.02850341796875	-6.08438062667847	-12.72130393981934	10.18051719665527	7.23680114746094	-36.31248474121094	-12.35830116271973	-8.25776576995850	2.88921308517456
CHEMBL4105936	-21.55584526062012	10.20479583740234	-0.97263276576996	9.19345760345459	-13.23104572296143	4.05567264556885	0.33790844678879	7.18088436126709	-3.41262149810791	-15.83541393280029	-0.16807216405869	8.58051586151123	-2.97637510299683	-4.00958871841431	-1.85718584060669	20.81352233886719	-2.46902132034302	18.06751632690430	-7.44519519805908	8.51693344116211	13.72515296936035	4.34899997711182	-24.83819961547852	7.96853256225586	-32.84357452392578	-24.80749511718750	24.29129981994629	1.74570047855377	6.39151239395142	-29.10219955444336	7.23835563659668	5.43121910095215	12.22079753875732	-2.36189126968384	20.98824119567871	0.86953532695770	20.70328712463379	6.03108358383179	0.35820078849792	-0.56322389841080	-41.99526214599609	-22.40316963195801	-25.55591201782227	7.41612815856934	7.30924940109253	7.34335613250732	-14.14070701599121	-23.83393096923828	6.59805870056152	-9.51943683624268	-10.07823085784912	9.39263725280762	-3.70144653320312	-18.51379013061523	6.57791709899902	4.26108884811401	0.88227880001068	-0.54309147596359	9.09708595275879	5.82233428955078	2.12735915184021	-9.03414916992188	5.27196121215820	-19.94636344909668	-17.44647216796875	15.05941581726074	9.86568450927734	-15.59711456298828	13.78476238250732	5.92238569259644	17.61587524414062	-7.53146409988403	-1.79000544548035	5.63940286636353	11.36415004730225	-9.23344612121582	1.56585431098938	16.41102981567383	1.29932284355164	-15.87041473388672	-7.40555858612061	1.08137917518616	9.80639076232910	12.46992111206055	-16.16894340515137	12.53708648681641	-24.54111099243164	14.33099365234375	10.13698005676270	4.95462894439697	-13.97851181030273	30.22177505493164	-8.09857845306396	-13.90780258178711	8.84125804901123	8.11665344238281	-35.89278793334961	-12.79016304016113	-8.48918151855469	3.02589797973633
CHEMBL4323	-20.32748794555664	9.19241905212402	1.95669031143188	7.87198114395142	-15.67508125305176	5.78659152984619	0.26092839241028	4.80173444747925	-10.58016204833984	-15.80252456665039	0.63332265615463	13.18121528625488	-0.36830890178680	-4.80284643173218	0.34527444839478	19.78936576843262	-5.61166763305664	19.59647750854492	-7.79686260223389	9.13663673400879	9.94980239868164	4.39391613006592	-28.29549026489258	9.50335979461670	-31.46373367309570	-24.45933532714844	24.71162796020508	6.50014495849609	10.48361873626709	-28.86179351806641	10.28118515014648	3.87847447395325	13.93939113616943	-2.93462061882019	19.20541000366211	1.07430815696716	20.17302131652832	5.58703899383545	1.08714520931244	-1.60194087028503	-42.40852355957031	-19.03198623657227	-25.36715698242188	9.05932617187500	10.02430820465088	5.20005798339844	-14.16597843170166	-20.58649826049805	8.26878166198730	-9.73035430908203	-8.06150245666504	8.32467460632324	-4.61052036285400	-19.12946701049805	5.86537122726440	6.08381700515747	0.90385860204697	-1.70112717151642	5.33356618881226	5.44549655914307	2.51396536827087	-11.34798622131348	6.62828493118286	-14.54510211944580	-14.22964668273926	15.57859992980957	13.58715820312500	-14.25557422637939	12.40192985534668	1.73541545867920	17.14719200134277	-11.73813629150391	-0.71474009752274	1.45557594299316	10.47332954406738	-8.71889495849609	2.85805511474609	15.96847343444824	-2.50350880622864	-14.06656455993652	-5.17683458328247	-1.40703535079956	10.53557586669922	14.17000102996826	-14.37156677246094	13.87088108062744	-22.92497634887695	15.59196662902832	8.55512523651123	1.66182661056519	-9.62077522277832	29.52188873291016	-5.76978206634521	-14.79953765869141	8.83543968200684	10.84485816955566	-42.38088989257812	-11.01473140716553	-12.41977882385254	3.08468151092529
CHEMBL6152	-17.66918563842773	6.54178619384766	-2.92006063461304	10.61487579345703	-15.87317657470703	7.08828115463257	3.40254235267639	1.95299029350281	-1.65162897109985	-16.88775253295898	-0.73334127664566	6.37417650222778	-4.83389568328857	-5.90008735656738	-0.83445268869400	21.64239311218262	-6.21348237991333	15.97107791900635	-5.35283565521240	5.54875946044922	13.32319641113281	7.05283164978027	-24.23684310913086	9.22373580932617	-36.07587432861328	-24.03965568542480	24.31300354003906	1.40162765979767	4.12087488174438	-26.54995727539062	3.79742431640625	7.47698688507080	10.08248996734619	-1.77329611778259	29.79184913635254	2.34737205505371	17.64363861083984	7.84434509277344	-3.00039243698120	-0.67454785108566	-43.61777114868164	-22.81040000915527	-29.58436203002930	7.92496109008789	6.81991529464722	8.38784408569336	-12.67561912536621	-19.21591949462891	10.39494705200195	-11.03664588928223	-5.49185514450073	12.23879241943359	-2.66667604446411	-16.72689819335938	8.07493972778320	4.85853385925293	2.16753506660461	-3.64875149726868	8.51847457885742	7.88851356506348	-1.77394556999207	-3.88643884658813	3.95475101470947	-19.80991363525391	-20.50149345397949	14.04853343963623	8.72123718261719	-16.90246772766113	13.21390914916992	7.99863338470459	16.50550651550293	-7.94990730285645	2.01068735122681	4.72865581512451	13.16127204895020	-10.22018623352051	1.96868944168091	16.65507316589355	1.15309453010559	-15.56550121307373	-5.85925436019897	-0.05703085660934	10.49280929565430	18.16010093688965	-15.00563240051270	15.76774597167969	-29.82494735717773	15.89759540557861	11.58946704864502	6.27517509460449	-9.78842830657959	35.03015136718750	-10.96430778503418	-12.62524986267090	8.77495765686035	8.04753303527832	-37.94726562500000	-14.78569030761719	-5.63650417327881	5.18961763381958
CHEMBL5989	-22.90262222290039	8.93238353729248	-2.41455841064453	6.97832918167114	-16.05577659606934	2.77656269073486	1.33237874507904	6.08784770965576	-5.74373912811279	-21.40507125854492	0.56845110654831	11.22879981994629	-6.48605251312256	-5.36610078811646	-4.14025259017944	20.75755310058594	-3.37722778320312	17.11496925354004	-5.58388328552246	6.41793441772461	16.85461044311523	1.46835184097290	-22.82836532592773	8.34517288208008	-34.78734588623047	-20.27905654907227	25.87046432495117	0.19822359085083	7.32436180114746	-27.19033050537109	6.09249687194824	4.52179193496704	11.21391677856445	-4.04542350769043	22.95095825195312	0.58492058515549	21.55068969726562	6.53824901580811	-0.05556441843510	-1.12429082393646	-44.91459655761719	-23.33373641967773	-26.42404174804688	7.19594478607178	7.89360618591309	8.09834766387939	-13.81902217864990	-19.15670967102051	8.42617416381836	-11.10928916931152	-10.45270252227783	4.37084102630615	-3.47490739822388	-15.61712074279785	6.78761577606201	4.73792648315430	1.89060127735138	-2.46052432060242	9.94384574890137	7.57717990875244	2.41770005226135	-8.21455764770508	3.46286249160767	-20.23211479187012	-16.32847213745117	14.03660202026367	11.18076896667480	-19.31766510009766	13.75936985015869	7.76104545593262	14.46518516540527	-11.99500846862793	-4.90361213684082	6.51499652862549	12.32534313201904	-9.53363323211670	1.41263353824615	18.75551605224609	-0.36651885509491	-15.68741607666016	-8.67331504821777	4.29749202728271	13.86958312988281	15.91520023345947	-18.06160926818848	13.22335243225098	-27.49106407165527	18.43668746948242	12.65777206420898	4.17088127136230	-10.73695373535156	31.25373458862305	-8.91307449340820	-11.28955936431885	9.65051841735840	7.63083457946777	-38.15034484863281	-11.92261695861816	-9.34640979766846	3.74183201789856
CHEMBL2154	-21.82325935363770	9.93858432769775	2.07842397689819	9.90066337585449	-15.89542579650879	4.41073417663574	-0.84696948528290	4.46868228912354	-10.86046218872070	-14.60235786437988	-2.83324241638184	11.76828575134277	-0.01997965574265	-5.76070690155029	-1.74411439895630	20.44596290588379	-5.95715045928955	21.47387123107910	-7.73846244812012	8.91021919250488	14.50632858276367	4.30490159988403	-29.80055236816406	7.80508756637573	-34.21894073486328	-25.67073059082031	24.93075942993164	8.53602218627930	8.75493812561035	-29.64402008056641	9.90288066864014	8.71692085266113	11.26599121093750	-3.22887849807739	18.04200744628906	-0.93824362754822	23.45949363708496	5.36204719543457	0.90961438417435	-0.10957446694374	-41.97681045532227	-17.79438591003418	-28.89725685119629	8.38730716705322	11.10007858276367	7.44570255279541	-14.05923080444336	-19.13183021545410	9.13635349273682	-7.24018859863281	-9.66263675689697	8.49559497833252	-5.68272304534912	-19.27388381958008	6.64589834213257	5.91856098175049	1.40840971469879	-3.54379224777222	2.12370705604553	5.71648979187012	0.55816370248795	-10.91970157623291	7.43816566467285	-14.49332523345947	-14.41447544097900	14.64011478424072	10.98130321502686	-13.64223861694336	11.77101325988770	1.30613303184509	17.79469299316406	-12.55095005035400	-3.07648110389709	0.80551147460938	9.93248271942139	-9.24170112609863	1.24521303176880	21.78777694702148	-2.37873530387878	-13.99224758148193	-6.59081792831421	-3.38371086120605	10.09503173828125	11.52835464477539	-16.98152160644531	16.03494262695312	-25.92702102661133	17.56459236145020	9.96962928771973	4.79769849777222	-12.03541469573975	32.55465316772461	-10.52756214141846	-15.44767951965332	9.16902160644531	12.38341140747070	-44.20186996459961	-11.35321617126465	-12.63290786743164	1.63772988319397
CHEMBL3474	-22.93609428405762	10.69393444061279	-2.11705660820007	6.97554016113281	-19.83606147766113	2.73890662193298	-2.39498686790466	0.22112601995468	-9.02626895904541	-15.98783493041992	-0.79849302768707	13.15526390075684	-1.89780139923096	-4.01145124435425	-2.67475509643555	19.83381080627441	-3.62760210037231	21.04072952270508	-11.53424167633057	6.93638992309570	12.86388015747070	6.71520662307739	-29.22309494018555	7.89407777786255	-35.59044647216797	-23.04374694824219	23.76647567749023	6.47932910919189	10.71908569335938	-33.11664581298828	10.02142524719238	7.15297317504883	16.02145385742188	-2.20876979827881	18.60743141174316	-3.70911002159119	24.42485809326172	4.38082599639893	-2.63273978233337	-4.05043029785156	-43.38565063476562	-17.07702445983887	-29.51077651977539	6.93261623382568	11.11958980560303	9.13020706176758	-16.46216201782227	-18.64164543151855	7.54083395004272	-12.14094352722168	-10.81875610351562	6.23022270202637	-4.52701902389526	-18.53115463256836	7.77659988403320	4.17467832565308	-1.77680110931396	-5.95089149475098	2.43219995498657	4.14986371994019	0.15437263250351	-12.04686737060547	5.88923549652100	-16.44649696350098	-13.85311985015869	13.20142364501953	11.15155601501465	-16.71031570434570	16.05724334716797	4.14698123931885	19.86518478393555	-10.54852104187012	-4.47814607620239	2.25656914710999	11.78564739227295	-9.05218505859375	2.03909349441528	22.28402328491211	0.46759945154190	-13.51808357238770	-5.40083360671997	-0.24683472514153	10.64293956756592	10.50734138488770	-16.20131301879883	10.57392883300781	-25.84426498413086	15.40786552429199	9.05219364166260	1.07085180282593	-15.07082748413086	29.01467132568359	-6.10119724273682	-14.39522171020508	10.66614627838135	14.49997520446777	-42.43151092529297	-15.01395988464355	-10.96546936035156	0.45352274179459
CHEMBL4105781	-19.99765396118164	9.95360946655273	-0.10612320899963	5.91433286666870	-16.75642395019531	5.31093215942383	2.76511955261230	5.84019804000854	-9.90157604217529	-17.03599166870117	-0.62495470046997	9.09424591064453	-1.57018804550171	-11.24416732788086	-1.62777543067932	20.79504585266113	-0.10863199830055	18.22444534301758	-2.64235210418701	7.86100769042969	14.66492462158203	3.07059693336487	-23.21091079711914	11.26725769042969	-34.88267135620117	-26.23003196716309	21.50712966918945	2.46869945526123	6.39035987854004	-30.43118095397949	5.28999996185303	7.48812150955200	10.78053855895996	-4.38800048828125	21.92561721801758	2.03524088859558	14.15226173400879	6.13196945190430	-0.27171814441681	-0.30471318960190	-46.95922088623047	-22.19743537902832	-29.40954589843750	7.97580957412720	6.78623580932617	5.52187252044678	-16.46163177490234	-21.85243225097656	10.21892738342285	-9.40299987792969	-4.07696008682251	11.49690055847168	-3.48293399810791	-15.91761398315430	3.55253887176514	6.74998664855957	2.04471921920776	2.66623806953430	10.46874523162842	8.68256187438965	4.02436447143555	-7.38818311691284	7.72995185852051	-14.08594226837158	-17.37890815734863	15.88347244262695	12.48360633850098	-14.21171951293945	13.41631698608398	7.44753170013428	13.65474319458008	-10.22262573242188	-3.28739476203918	4.79204463958740	11.37176513671875	-10.41829299926758	-0.89013910293579	17.47240447998047	0.91313576698303	-16.13251304626465	-7.09502363204956	2.69236421585083	10.49440574645996	16.98873710632324	-16.78308296203613	14.46833229064941	-27.75611877441406	15.61627674102783	15.82905006408691	6.90409469604492	-15.31582260131836	32.71733093261719	-4.14019107818604	-12.83205795288086	11.51730918884277	8.43213653564453	-42.35842895507812	-11.53767585754395	-9.00876235961914	2.15394330024719
CHEMBL4281	-20.24545097351074	11.68997287750244	0.80742400884628	7.84049081802368	-16.74263763427734	3.34067440032959	-3.81748700141907	3.46566152572632	-9.39776992797852	-14.46922302246094	-0.90625286102295	15.28645896911621	-1.96833622455597	-4.86638307571411	-1.18644690513611	21.26018524169922	-3.55182886123657	22.68449783325195	-9.84430217742920	7.86092567443848	13.69171142578125	4.68922615051270	-28.33966064453125	7.40672588348389	-34.09492874145508	-23.14025115966797	24.32888603210449	5.31245517730713	10.25471305847168	-30.95968055725098	9.17273807525635	7.00517272949219	15.55487060546875	-4.36962223052979	18.60922050476074	1.45627892017365	24.08439254760742	4.37569522857666	2.45451521873474	-3.25748109817505	-41.75618743896484	-19.77061653137207	-27.08147811889648	8.26435947418213	11.16670608520508	7.38738536834717	-15.39932346343994	-20.14368057250977	5.77219104766846	-11.98217201232910	-12.30050754547119	8.06116199493408	-5.40351009368896	-19.08494186401367	5.32560825347900	5.18081045150757	1.14711403846741	-2.92615270614624	2.26525402069092	8.14950847625732	2.89276075363159	-14.85166931152344	6.77353143692017	-13.69903373718262	-14.87052154541016	15.66662788391113	11.99157428741455	-14.96827697753906	15.93979835510254	2.51043128967285	18.98238945007324	-8.75652503967285	-3.55103969573975	5.12091636657715	11.71226024627686	-10.91192817687988	4.70954895019531	19.36315917968750	0.54503393173218	-13.21090793609619	-7.25380134582520	-1.80440640449524	12.18288803100586	14.52262687683105	-14.65917015075684	13.89839076995850	-28.81483268737793	14.21917152404785	14.21541786193848	3.66022682189941	-11.45230770111084	30.29071426391602	-8.14218997955322	-13.18194770812988	8.65637207031250	12.34974479675293	-45.48499298095703	-13.49044513702393	-11.48847198486328	0.25221881270409
CHEMBL4502	-21.91197967529297	10.44329738616943	-1.03202378749847	8.40824413299561	-16.50920867919922	3.85372161865234	-1.98403263092041	5.26230573654175	-8.62716388702393	-16.63034057617188	-0.30703562498093	10.80624580383301	-3.12585592269897	-6.55735111236572	-2.58966231346130	22.90295791625977	-5.61115169525146	20.55444526672363	-6.60016727447510	7.11154460906982	13.24009132385254	5.92038059234619	-25.14303779602051	8.05784416198730	-33.60688018798828	-22.75244331359863	25.98546981811523	3.32982301712036	7.14096164703369	-32.98933410644531	5.37338399887085	9.69078063964844	11.68721961975098	-3.51171112060547	24.94774436950684	2.73072004318237	24.18849945068359	6.12380695343018	0.80148351192474	-1.01309978961945	-44.19221878051758	-18.47404289245605	-27.63510513305664	7.64208602905273	9.09298801422119	9.87298011779785	-16.18573570251465	-19.49573516845703	8.38780975341797	-11.26778984069824	-9.52713012695312	7.83445596694946	-4.79546737670898	-17.46241760253906	7.34450817108154	7.25181865692139	-0.22021088004112	-1.83579730987549	4.35833120346069	6.60485267639160	2.49856615066528	-8.81714534759521	4.71637725830078	-16.62778854370117	-15.68903541564941	12.38592529296875	12.01746940612793	-14.99919700622559	17.50448036193848	5.43917083740234	17.66925811767578	-10.76470470428467	-2.68840456008911	4.38825225830078	10.20825386047363	-9.81282520294189	3.78705930709839	20.88904571533203	-3.19751405715942	-16.28843307495117	-7.57573890686035	0.80162149667740	12.04278564453125	13.03514862060547	-18.37062072753906	15.74529170989990	-29.19374084472656	17.23276519775391	11.50073814392090	3.70899581909180	-12.39146614074707	32.59111785888672	-11.84141826629639	-13.36519050598145	9.19771575927734	8.72840213775635	-44.29705429077148	-12.41159820556641	-8.66023540496826	2.46534442901611
CHEMBL3194	-22.30590438842773	7.16606521606445	-0.18404808640480	9.76011276245117	-17.28419876098633	7.79680919647217	6.34572982788086	3.86561727523804	-9.07033920288086	-15.88851928710938	0.48609757423401	6.88447475433350	-2.89817237854004	-8.64289855957031	1.26255714893341	19.31795883178711	-5.00510597229004	19.96846771240234	-5.68974828720093	9.98984241485596	14.43158721923828	7.02035760879517	-24.08241653442383	9.37572097778320	-37.45196533203125	-24.48153305053711	24.70792388916016	4.99323415756226	6.64999771118164	-30.74377822875977	8.89345836639404	11.15092277526855	15.23287010192871	-1.01135444641113	26.07919311523438	-2.09774804115295	19.54600143432617	6.63930130004883	-2.51558279991150	-0.20188885927200	-44.98924636840820	-22.48460388183594	-31.01077079772949	9.85792922973633	6.61843395233154	8.40497207641602	-15.54093742370605	-20.60290718078613	10.59194469451904	-12.46674728393555	-4.36702823638916	11.93617057800293	-2.97029924392700	-17.13040542602539	6.53449344635010	4.53597879409790	1.19270873069763	0.62047475576401	7.06799602508545	8.04459190368652	3.41251611709595	-6.42949533462524	7.18364238739014	-18.06913375854492	-17.31710624694824	15.75298690795898	13.35020160675049	-14.56090259552002	15.10444164276123	5.96261596679688	13.86124229431152	-9.52807998657227	1.03592371940613	3.67669057846069	11.39934349060059	-11.28745555877686	0.58450448513031	18.47447395324707	-0.63013279438019	-17.31961441040039	-6.28755855560303	-1.10859870910645	12.10230827331543	11.67084693908691	-19.47673797607422	14.49883747100830	-29.73342514038086	15.99255752563477	11.25880527496338	4.00872039794922	-15.22306728363037	34.28211975097656	-3.25154519081116	-15.44457817077637	12.60538959503174	8.83641624450684	-40.70692825317383	-13.20434188842773	-6.87420749664307	2.85673332214355
CHEMBL4426	-23.94170761108398	7.77995014190674	-2.46817255020142	7.67478561401367	-16.54158592224121	4.30465888977051	-1.26110398769379	3.07112479209900	-8.11211776733398	-17.98198127746582	-0.32916271686554	14.97160530090332	-3.64808368682861	-4.22457885742188	-3.64232110977173	20.40392303466797	-2.03559374809265	21.96048355102539	-12.08473014831543	8.14249801635742	14.88767051696777	7.19909381866455	-32.72569274902344	6.37169933319092	-34.19875335693359	-21.56181526184082	27.96802139282227	5.67764711380005	10.24498271942139	-33.23211669921875	10.60977458953857	5.09972906112671	16.62058258056641	-3.96504020690918	20.33868026733398	-4.06951522827148	25.73933792114258	6.36366462707520	-1.66612219810486	-3.73548579216003	-42.54660034179688	-16.25946235656738	-29.46588134765625	6.74256563186646	11.62262153625488	10.22531700134277	-15.94528961181641	-20.43457794189453	7.67955970764160	-14.61314296722412	-11.88970851898193	5.66634845733643	-2.83236026763916	-19.42378234863281	7.92173719406128	4.14163970947266	-1.79073107242584	-4.64459943771362	1.06200277805328	4.32389831542969	1.30638337135315	-12.03413200378418	6.06104373931885	-19.22066879272461	-13.27441501617432	13.47945404052734	13.20787239074707	-19.42430877685547	15.39010906219482	6.66799211502075	17.56264686584473	-13.42139244079590	-3.76648330688477	2.89954447746277	12.07526588439941	-12.38881015777588	0.99924051761627	21.48944854736328	-2.57616138458252	-15.91189765930176	-7.45211410522461	-1.46970605850220	12.88859176635742	11.45465850830078	-18.72410583496094	11.98223114013672	-23.99940872192383	15.78967475891113	7.37695598602295	3.04327344894409	-14.42967033386230	31.57402610778809	-9.05233001708984	-14.92235660552979	9.74733066558838	12.38714218139648	-41.78991317749023	-15.04120922088623	-11.81903362274170	1.17786467075348
CHEMBL6093	-21.91252899169922	9.58966064453125	-1.16754293441772	5.88333702087402	-19.29307746887207	-1.15793502330780	0.97236061096191	5.61226272583008	-1.09283590316772	-19.03123092651367	-1.66278171539307	12.39609622955322	-7.82392930984497	-6.45105075836182	1.03130531311035	27.07122802734375	-3.09495043754578	19.08193397521973	-6.19703388214111	9.58836174011230	16.92050170898438	1.31304419040680	-26.76976394653320	9.90216922760010	-32.78573608398438	-21.92931747436523	26.27276611328125	2.26595497131348	2.36772203445435	-27.58503150939941	2.64654350280762	7.20659255981445	11.56378269195557	-3.08189630508423	28.01794624328613	0.03328005224466	19.11522865295410	8.68625259399414	0.08135923743248	0.86132419109344	-47.79827880859375	-24.50982856750488	-24.64831924438477	6.12273645401001	7.15754175186157	7.84864664077759	-11.34241867065430	-24.75514602661133	7.06755352020264	-11.17088699340820	-6.59004211425781	12.14200782775879	-5.05625677108765	-19.71146392822266	10.91917896270752	3.73729944229126	1.78853273391724	-0.65248107910156	12.82383537292480	10.46340084075928	6.37123394012451	-9.38714790344238	6.08685588836670	-20.79336357116699	-20.14345932006836	16.70615386962891	11.71019268035889	-21.51835823059082	14.76416587829590	10.79878997802734	16.20637512207031	-12.56549263000488	-3.14600229263306	9.40226840972900	12.52355003356934	-10.81095504760742	2.52945184707642	18.70595169067383	1.86953711509705	-15.72556591033936	-8.93469810485840	4.91698217391968	17.75095748901367	18.10182571411133	-17.99111366271973	15.86876487731934	-25.53985595703125	20.22500038146973	8.94793224334717	5.68719291687012	-14.08526611328125	35.30757904052734	-9.46556282043457	-14.07552719116211	11.01075458526611	9.32918357849121	-37.26002502441406	-14.37076663970947	-3.68441581726074	5.89214706420898
CHEMBL5169127	-21.74155235290527	9.98377513885498	0.54045611619949	6.89038038253784	-19.72685432434082	1.16338992118835	2.72891020774841	4.14535665512085	-3.13655233383179	-18.55809020996094	-2.42502832412720	10.70238304138184	-6.61993646621704	-4.32086277008057	-0.53179699182510	26.73063659667969	-3.60011601448059	19.15631103515625	-3.84085917472839	9.17872238159180	17.58096122741699	2.03889441490173	-26.73823547363281	8.54958629608154	-32.85736083984375	-20.47872161865234	25.47010421752930	4.97206497192383	3.36414957046509	-27.44715881347656	4.28542947769165	8.91961669921875	12.40891647338867	-2.99737119674683	27.10068893432617	0.64829111099243	18.07157135009766	8.52994537353516	0.30034428834915	3.75527882575989	-48.02163696289062	-25.10634613037109	-26.65838623046875	6.87100934982300	6.46057939529419	8.87645626068115	-13.05626583099365	-25.46523284912109	8.05839920043945	-11.10434913635254	-5.49386930465698	10.81082534790039	-4.85673952102661	-18.97806167602539	10.02338695526123	4.73098707199097	2.63347744941711	0.53304886817932	11.99422073364258	9.95050525665283	5.75276660919189	-9.82207870483398	5.17630863189697	-21.16876411437988	-19.89648628234863	15.93018054962158	13.56503486633301	-19.09296798706055	12.62669372558594	8.36962509155273	16.55512428283691	-12.24488544464111	-1.88582277297974	8.30271911621094	12.85053157806396	-8.46254444122314	1.26406800746918	19.29034423828125	1.89795613288879	-15.99173164367676	-8.68792915344238	4.99203300476074	14.90975570678711	17.48457527160645	-17.67257881164551	14.22807121276855	-25.93736076354980	19.51222419738770	8.62245941162109	6.43120002746582	-13.93440437316895	37.32337188720703	-8.48963642120361	-12.66423225402832	12.26010704040527	8.29603099822998	-38.61983108520508	-12.71342849731445	-3.64611625671387	5.18243026733398
CHEMBL3860	-24.11270141601562	10.92725276947021	-4.11132144927979	5.11589336395264	-18.51766967773438	1.76646173000336	2.42414259910583	7.87370681762695	-7.50040340423584	-19.69463348388672	3.65036058425903	8.85213851928711	-4.80269050598145	-7.74817991256714	-0.59240812063217	24.87031936645508	0.56715095043182	17.71296882629395	-6.96074295043945	7.38055324554443	16.89038848876953	4.75774574279785	-23.96857261657715	12.76914215087891	-36.18709182739258	-25.16774177551270	26.38765144348145	0.15291738510132	6.95279979705811	-28.99558067321777	3.89523553848267	6.20874881744385	14.00117301940918	-3.25206589698792	26.01397323608398	1.72759318351746	23.60481071472168	5.84777450561523	-0.60250103473663	-0.16091871261597	-48.11545562744141	-21.98574638366699	-28.33482360839844	6.88269996643066	9.04042243957520	8.43857002258301	-12.18097114562988	-21.63951110839844	9.04062080383301	-12.63021755218506	-7.75665950775146	9.79523944854736	-6.20314121246338	-19.63780403137207	7.48705577850342	4.65258407592773	0.43068918585777	0.57541584968567	11.14503097534180	7.01027870178223	1.10883927345276	-8.39742660522461	4.75138378143311	-18.79170989990234	-17.33941459655762	16.25886917114258	11.07320117950439	-18.92885589599609	14.85893821716309	9.74091911315918	16.32275009155273	-9.76117515563965	-2.89213252067566	8.89783954620361	12.43662834167480	-10.52355384826660	-0.24935519695282	19.44529151916504	-1.88713002204895	-17.43095016479492	-9.06892967224121	4.84930038452148	13.81341361999512	14.97308731079102	-18.79684638977051	15.77571678161621	-29.33405685424805	19.02140045166016	12.44540977478027	3.28480315208435	-13.73517799377441	32.66049194335938	-7.97358417510986	-14.89554023742676	11.15801239013672	6.75063419342041	-37.57340621948242	-13.04180526733398	-8.14794540405273	5.34858417510986
CHEMBL4879502	-21.99608230590820	9.81921863555908	-1.06350398063660	12.85443878173828	-16.45359420776367	7.38383626937866	3.46717500686646	5.61377811431885	-12.04163646697998	-17.51478958129883	2.16688394546509	7.03274250030518	-2.88151788711548	-9.16109561920166	-0.53978776931763	19.42323684692383	-4.77178478240967	19.55374526977539	-0.91870045661926	3.75979948043823	13.96597290039062	6.03662681579590	-21.81196022033691	9.95616722106934	-35.50466156005859	-22.21949195861816	25.39319038391113	1.43207275867462	7.63073348999023	-30.82977676391602	7.90603351593018	8.54016494750977	14.19852638244629	-2.15470004081726	27.08061981201172	4.28317451477051	10.90374565124512	7.92572402954102	-2.23146200180054	1.95388650894165	-51.17047882080078	-22.64120101928711	-29.79026412963867	8.80163097381592	4.53001499176025	7.65867805480957	-11.69415855407715	-21.73472976684570	16.33517837524414	-12.12678146362305	-5.44825696945190	9.75657749176025	-4.71579122543335	-16.31793022155762	4.92339706420898	6.42179250717163	1.66166996955872	1.53397703170776	6.13742208480835	12.64268493652344	7.20989084243774	-5.57277965545654	5.95518732070923	-17.84394454956055	-16.66564178466797	15.22922992706299	13.52647686004639	-14.46501636505127	16.68008613586426	4.98657226562500	14.32753753662109	-11.03939247131348	3.38620829582214	3.34048175811768	10.70709991455078	-8.31884765625000	0.30046665668488	22.17197227478027	-3.97426891326904	-16.20070266723633	-9.76538276672363	3.57159948348999	13.27096366882324	13.72633647918701	-17.08570671081543	18.21228599548340	-33.00270080566406	16.08328247070312	15.45855140686035	5.51208305358887	-14.35832405090332	39.41541290283203	-5.37073326110840	-12.47365093231201	11.49042320251465	7.07658576965332	-46.78222656250000	-10.37912082672119	-11.25270080566406	3.19046688079834
CHEMBL5658	-23.73928833007812	10.86925315856934	1.26750981807709	9.17600727081299	-14.36071586608887	7.97102546691895	4.61394882202148	8.44603919982910	-15.97481060028076	-13.15208721160889	-2.89466214179993	8.57345485687256	1.21226525306702	-10.40898418426514	-0.43273562192917	22.28789901733398	-1.98462235927582	19.94107055664062	-2.70295214653015	11.16672515869141	14.87227344512939	7.58412647247314	-27.46474266052246	11.08347034454346	-37.68954467773438	-31.03972053527832	23.48315620422363	2.47650098800659	9.07917404174805	-33.59261322021484	10.88171672821045	9.33322525024414	13.59667205810547	1.67734169960022	22.12793922424316	2.51857376098633	17.75313949584961	6.13807487487793	-0.39595457911491	2.60915589332581	-46.16320800781250	-23.45012664794922	-32.39802932739258	8.72659492492676	7.71487426757812	8.35501289367676	-18.69534683227539	-25.10316848754883	10.81871414184570	-8.28643512725830	-2.46975922584534	12.95993614196777	-4.82667684555054	-18.76398086547852	1.70980906486511	8.69772911071777	3.77901339530945	4.40198230743408	4.03637933731079	9.15011882781982	1.28094649314880	-6.62470149993896	9.06220817565918	-14.46443557739258	-17.73675537109375	17.58916854858398	12.14287567138672	-13.03955745697021	13.89327049255371	3.77430152893066	13.60823249816895	-12.19956874847412	-0.85412424802780	2.71943402290344	12.52843856811523	-7.22712993621826	-0.06016352772713	18.69375419616699	-3.92862653732300	-18.56413459777832	-5.82743215560913	-1.23919391632080	8.26477813720703	11.33780479431152	-19.41404342651367	16.12500572204590	-28.18778419494629	18.55651092529297	15.07587051391602	5.54908370971680	-17.90903472900391	32.87954711914062	-6.97705364227295	-12.61107635498047	12.69817638397217	7.88664245605469	-46.12485122680664	-15.28096294403076	-13.79581260681152	2.30415821075439
CHEMBL2160	-22.81388282775879	11.12359428405762	0.25900357961655	9.13773727416992	-14.50477981567383	4.61737585067749	1.97384214401245	7.38127040863037	-4.38320732116699	-18.31642532348633	-1.38886952400208	8.52345848083496	-3.09729528427124	-6.24115991592407	-1.64236295223236	23.36389160156250	-2.43708252906799	18.80326652526855	-7.28202724456787	8.78471565246582	15.90230369567871	5.28082323074341	-27.78322219848633	9.80420589447021	-37.56974029541016	-27.41073799133301	27.34780883789062	2.05800986289978	7.00780248641968	-31.34145164489746	6.45431804656982	5.63399124145508	13.97701644897461	-3.14586305618286	24.21966552734375	1.21613621711731	22.60513305664062	7.81906032562256	0.93936431407928	-0.00093972682953	-46.26863098144531	-25.43041229248047	-28.60693359375000	8.31900310516357	7.69869804382324	8.49085044860840	-16.22848129272461	-26.44115066528320	6.96572446823120	-9.40402030944824	-9.13938903808594	11.49154472351074	-4.09654092788696	-19.61067581176758	7.67633485794067	5.44162797927856	1.33402931690216	0.01696626842022	10.44556140899658	6.19485139846802	2.81193923950195	-8.50214481353760	5.72377014160156	-21.72023773193359	-19.03272628784180	17.62795257568359	12.05618381500244	-18.12107276916504	15.10700607299805	7.27293395996094	18.80426788330078	-9.15750694274902	-2.14783072471619	7.19689607620239	13.05065536499023	-9.41850376129150	1.26806342601776	18.12047576904297	-0.51025778055191	-18.19234466552734	-8.05617809295654	1.27288842201233	11.06897926330566	14.67139148712158	-18.01170730590820	13.97073745727539	-27.21808242797852	16.34692001342773	12.31284713745117	5.71009397506714	-14.53398227691650	33.81304931640625	-8.55606269836426	-15.53847503662109	10.62687015533447	9.46973228454590	-39.42635726928711	-14.06762695312500	-8.38923931121826	4.24105072021484
CHEMBL5880	-24.65626144409180	9.24021911621094	-7.65115594863892	4.23357486724854	-15.87395668029785	2.12482762336731	-1.50420665740967	9.39843940734863	-7.05596351623535	-23.40486526489258	4.91397809982300	13.37855720520020	-4.54985904693604	-7.58490657806396	-2.93999052047729	21.72763824462891	1.94121336936951	19.40044403076172	-10.73873138427734	8.25214481353760	20.01414299011230	7.29843521118164	-26.31355476379395	11.53154182434082	-36.07442474365234	-26.89724540710449	25.54426574707031	-1.90620040893555	10.90352344512939	-31.86982917785645	1.97681546211243	-0.09138286113739	14.73226737976074	-2.29299283027649	22.12256431579590	1.80565369129181	26.47385597229004	8.47473526000977	-2.05267667770386	-6.30347919464111	-46.60841369628906	-19.39550781250000	-28.62186813354492	5.25058126449585	11.92403888702393	11.83201694488525	-15.31023120880127	-26.27709960937500	5.19539117813110	-15.49352169036865	-10.09939670562744	8.26418781280518	-3.11534428596497	-19.29282188415527	8.60520935058594	5.88882017135620	-0.59188246726990	-0.30848813056946	9.23659706115723	6.38379430770874	0.57114964723587	-10.51527023315430	3.22457313537598	-18.70593070983887	-16.77887344360352	15.16434669494629	12.54394435882568	-23.29608917236328	16.85686683654785	10.20476055145264	14.76883125305176	-9.22096443176270	-8.03538131713867	8.30089569091797	10.52244663238525	-11.78147792816162	-1.87385010719299	21.79795074462891	-4.09664630889893	-16.84913063049316	-9.86101531982422	5.92804241180420	18.50678062438965	11.88965225219727	-20.69969367980957	13.64157676696777	-26.64802742004395	16.57638931274414	12.08812904357910	2.90885448455811	-14.84970664978027	29.51071929931641	-6.96826982498169	-16.57037734985352	13.93928718566895	6.81021690368652	-40.55302429199219	-12.99046707153320	-8.21852493286133	4.71005916595459
CHEMBL2406892	-25.13469123840332	10.80440711975098	-3.03104877471924	7.12920188903809	-18.33509826660156	4.03327512741089	2.57583737373352	4.89637660980225	-5.23840856552124	-22.36367797851562	2.21364212036133	12.97621917724609	-5.02016639709473	-5.77889633178711	2.16957497596741	26.08377838134766	-1.98293495178223	21.93220329284668	-5.90507650375366	4.97813224792480	16.87142944335938	4.45100784301758	-26.31118392944336	9.59851169586182	-37.40092849731445	-26.28293418884277	27.40792655944824	-2.25286459922791	5.45419692993164	-31.67704010009766	0.47994679212570	3.66598367691040	16.85798072814941	-4.51034069061279	24.40696716308594	2.09278678894043	22.85648727416992	7.38534164428711	3.05294799804688	-0.80031239986420	-47.41392517089844	-22.79615020751953	-27.70958709716797	7.84047842025757	6.42867183685303	9.88728713989258	-14.77855682373047	-25.22892951965332	8.45431709289551	-9.65598964691162	-11.78064250946045	8.69648456573486	-2.66127920150757	-20.50724029541016	8.25546455383301	5.97451686859131	0.06291902065277	-2.78953981399536	10.54754829406738	4.90848112106323	0.21055005490780	-11.32223320007324	5.54621934890747	-21.63551712036133	-16.57845687866211	19.56404495239258	11.68814563751221	-21.64609909057617	15.67242622375488	8.15041923522949	20.06524467468262	-10.51884174346924	-1.88077735900879	4.63966560363770	12.82044124603271	-11.80149841308594	4.07192850112915	16.28274917602539	-3.63939189910889	-18.33123207092285	-8.75502681732178	3.82665324211121	14.14594078063965	16.71818733215332	-17.25362777709961	12.42331695556641	-28.26398468017578	17.51399230957031	11.92307662963867	6.84257888793945	-14.92979240417480	34.77071380615234	-7.73792648315430	-16.23950767517090	7.62789630889893	7.95652103424072	-39.60156250000000	-14.72987747192383	-8.83742809295654	2.96126818656921
CHEMBL3708265	-21.88187217712402	9.99542808532715	-1.50770044326782	9.98900222778320	-19.84321975708008	5.92192173004150	3.53781437873840	6.09332752227783	-8.43811130523682	-20.02530860900879	-1.25372266769409	10.50729179382324	-3.30530023574829	-8.32334041595459	-1.08389949798584	22.99921417236328	-1.65555071830750	22.87535858154297	-5.72709369659424	7.02397537231445	16.23276138305664	3.77267742156982	-26.80520248413086	13.11121368408203	-37.64081573486328	-27.56353759765625	26.39502716064453	0.85175955295563	5.41276884078979	-34.12284469604492	5.75531339645386	6.58565998077393	15.18528652191162	-3.77948045730591	25.99952125549316	1.07670986652374	16.74017143249512	7.32248115539551	-0.02603092789650	1.10365533828735	-48.00692749023438	-24.70461082458496	-28.01505279541016	7.80197620391846	4.28825616836548	7.08817005157471	-14.00155735015869	-24.29005432128906	7.73210334777832	-9.94376373291016	-7.97264909744263	11.27210712432861	-5.04563045501709	-19.68309783935547	6.39106130599976	6.79380273818970	2.26539397239685	3.66029763221741	9.55961036682129	8.70816707611084	5.17305231094360	-11.69431972503662	8.16914176940918	-19.05102539062500	-18.29515075683594	17.67967414855957	14.75954437255859	-14.78462886810303	15.80861091613770	5.67202806472778	19.38147163391113	-10.38067436218262	-2.21141576766968	7.13094091415405	12.69388389587402	-10.19078826904297	0.97408020496368	19.32226943969727	0.62717920541763	-18.94874191284180	-7.74545335769653	3.42590045928955	15.24586009979248	15.64089584350586	-14.13141632080078	18.43788146972656	-29.35880279541016	17.44183349609375	12.94959545135498	4.38430070877075	-12.98072242736816	35.72952651977539	-6.72847843170166	-14.76965904235840	13.19253349304199	6.35694551467896	-42.31911468505859	-13.48725795745850	-9.70347118377686	5.32937812805176
CHEMBL4903	-24.15766143798828	11.41372013092041	-3.95996689796448	8.07312011718750	-20.49223709106445	1.75581133365631	-2.68161678314209	4.96145963668823	-8.02809429168701	-23.89904022216797	0.52697038650513	12.59551620483398	-3.41467142105103	-5.99896430969238	-2.04221940040588	23.97849273681641	-2.84412240982056	21.52810859680176	-10.46300888061523	10.77763652801514	18.62034988403320	5.27230978012085	-27.72081375122070	9.97114372253418	-37.40784072875977	-24.89769363403320	27.11860656738281	3.95015263557434	9.12313365936279	-31.27950668334961	6.61485767364502	4.22089958190918	15.32221031188965	-3.93502426147461	20.84046363830566	1.98938488960266	26.14995574951172	6.15036487579346	-1.27675807476044	-1.18075180053711	-48.93795776367188	-23.99892044067383	-28.20956802368164	6.69454288482666	9.93800354003906	8.88390922546387	-14.57656860351562	-23.18568038940430	8.12347412109375	-14.27137088775635	-9.71610260009766	8.88008403778076	-4.12147665023804	-19.87137794494629	7.44989013671875	4.13088321685791	-0.50215196609497	-2.18135118484497	10.03430461883545	6.59694910049438	-0.14191718399525	-13.11667919158936	6.82110023498535	-16.81444168090820	-17.99555969238281	12.44464206695557	14.30661773681641	-20.51551437377930	16.80863761901855	5.02128219604492	20.46606826782227	-10.01675224304199	-4.11681985855103	7.18472099304199	13.20183372497559	-13.57187175750732	-0.16827295720577	19.70127296447754	-1.30545222759247	-15.19589805603027	-8.28941726684570	5.22686672210693	17.15747642517090	15.77220630645752	-18.60556030273438	14.00607013702393	-27.97344017028809	18.89892005920410	11.37657737731934	4.36987400054932	-12.78339385986328	35.36319732666016	-7.68361568450928	-16.07284545898438	12.12004280090332	8.82105255126953	-43.62652969360352	-13.72369289398193	-10.58209419250488	3.32198238372803
CHEMBL4550	-25.72882461547852	10.77493476867676	-3.41278457641602	6.15730285644531	-15.60473442077637	7.94020938873291	3.40192556381226	10.06365394592285	-9.60581588745117	-16.10481262207031	1.11355304718018	11.87985420227051	5.50376939773560	-9.34622383117676	-2.66583681106567	21.93014526367188	2.51750230789185	20.83531570434570	-9.97718715667725	10.49924564361572	17.24156761169434	9.23310852050781	-29.57678794860840	14.37285995483398	-40.03536987304688	-36.26025009155273	25.22095489501953	-2.05513358116150	11.65683650970459	-36.30193328857422	7.11850166320801	6.44484329223633	18.28025436401367	-0.89294195175171	20.39003562927246	0.32365787029266	25.94545936584473	11.03621482849121	-2.64421033859253	-3.84137225151062	-44.62057876586914	-23.77728080749512	-35.92514038085938	10.18752574920654	9.66180229187012	9.87379264831543	-18.34629821777344	-24.87013244628906	5.07016801834106	-12.13416004180908	-3.84594273567200	16.55288505554199	-9.07421779632568	-22.02051925659180	3.51094579696655	5.98119735717773	-0.46741610765457	3.40653800964355	6.65794944763184	7.38153171539307	-1.37867331504822	-6.22305011749268	4.67784595489502	-13.32118797302246	-18.06438827514648	18.93967437744141	15.31789779663086	-19.06552124023438	15.02218055725098	8.37291145324707	15.23254203796387	-12.73985862731934	-7.75039291381836	4.18677854537964	11.31723403930664	-15.00121974945068	-2.36462354660034	20.12483596801758	0.26930814981461	-17.15247344970703	-3.27060413360596	-1.19529867172241	13.29356193542480	9.30695152282715	-17.58558273315430	18.38527107238770	-28.71772384643555	16.53655815124512	14.74169349670410	3.79037046432495	-19.21225166320801	30.95903778076172	-4.62720870971680	-19.88733482360840	13.06535339355469	4.86653518676758	-46.27289581298828	-17.81070518493652	-14.86103439331055	2.38861393928528
CHEMBL2288	-27.55178070068359	7.17749786376953	-6.75239562988281	8.77652549743652	-21.38622474670410	4.93499755859375	2.02666902542114	7.76291418075562	-8.41920566558838	-21.12257385253906	0.11394488811493	10.34755325317383	-8.58821201324463	-7.74377727508545	-4.38451290130615	22.17203140258789	-0.71706825494766	25.86924362182617	-8.89400672912598	7.95231819152832	16.78192901611328	6.30977678298950	-27.70353317260742	8.62503433227539	-37.82926177978516	-22.44524765014648	28.96544265747070	6.70808219909668	5.89268636703491	-34.09823608398438	8.01642322540283	9.42001914978027	15.27551460266113	-1.43870103359222	29.27718734741211	2.64959788322449	23.33967590332031	6.92035961151123	-3.16769647598267	1.91899037361145	-54.17020416259766	-22.80457115173340	-30.81217956542969	5.57859659194946	4.82567739486694	9.90496253967285	-13.64638137817383	-22.43084716796875	9.45947647094727	-20.32855606079102	-7.10973644256592	7.66665792465210	-0.11048251390457	-21.49805831909180	5.28602123260498	5.79160976409912	0.33844214677811	1.04751276969910	10.66969394683838	8.69430160522461	6.21632623672485	-12.80475044250488	9.10752296447754	-19.04984092712402	-18.68403244018555	17.21440696716309	11.44576740264893	-19.74977874755859	19.48943519592285	5.99377441406250	17.91069793701172	-9.00558853149414	-0.23994813859463	5.21247291564941	12.49575233459473	-12.15261077880859	0.65493208169937	23.67388343811035	-1.00721848011017	-16.78553009033203	-9.61065292358398	2.56783533096313	16.44427680969238	15.40055656433105	-20.01396560668945	13.56292343139648	-30.47135543823242	17.93330764770508	12.19002914428711	4.10025262832642	-15.40616703033447	38.31119537353516	-5.60696125030518	-15.63752651214600	14.85340690612793	9.98955345153809	-46.75398254394531	-11.37873554229736	-6.50920963287354	2.08111190795898
CHEMBL1930	-26.38844299316406	10.70940399169922	-2.36557531356812	9.62283325195312	-18.98742675781250	12.12877082824707	4.44022417068481	7.59178161621094	-17.31806945800781	-14.69470977783203	0.18155166506767	8.19134902954102	3.15955877304077	-10.90258693695068	-4.96269750595093	21.17351150512695	0.29783409833908	20.39612960815430	-7.12613630294800	8.67014694213867	20.53791999816895	9.36612987518311	-28.11059188842773	13.11296272277832	-38.86044311523438	-35.45090103149414	24.82757759094238	2.76524329185486	12.36173820495605	-35.60989379882812	11.62011432647705	9.43109035491943	17.29220581054688	-4.72424507141113	22.95746421813965	1.54088425636292	21.44844436645508	7.06549596786499	0.77593642473221	-0.11058107018471	-47.05450057983398	-22.58774948120117	-37.87256240844727	9.49777603149414	10.23765373229980	10.60360050201416	-19.74781990051270	-23.22883415222168	6.38649177551270	-11.49027729034424	-1.46985363960266	13.54245376586914	-7.68779850006104	-20.49624824523926	3.63036632537842	8.99844837188721	1.94357991218567	2.16027331352234	5.81440734863281	7.62070465087891	-1.25139379501343	-9.41085624694824	7.61889219284058	-11.89072132110596	-18.33922767639160	17.03119850158691	13.42586231231689	-13.16049575805664	13.82460975646973	4.19004487991333	14.63462638854980	-13.45494461059570	-8.00796413421631	3.72084689140320	10.06595802307129	-9.47935581207275	0.39312687516212	21.91308212280273	1.87675487995148	-18.88049125671387	-2.65588188171387	-2.28778982162476	9.26999282836914	9.77319526672363	-17.35343742370605	16.75645446777344	-30.39381217956543	16.51065063476562	16.49039077758789	5.45797729492188	-20.00272750854492	34.91721725463867	-1.41020095348358	-17.11464118957520	15.46544456481934	10.20927715301514	-50.63131713867188	-18.74140739440918	-16.00926208496094	0.81133067607880
CHEMBL4342	-27.46235084533691	10.71134471893311	-0.04790157079697	11.73841381072998	-19.54327201843262	8.18326568603516	-0.56630641222000	7.34982538223267	-13.93579292297363	-18.39329147338867	-3.08796930313110	13.22318077087402	-1.06148862838745	-7.36328601837158	-2.51730155944824	18.99026679992676	-4.90721082687378	24.58329010009766	-7.00557088851929	7.02237606048584	12.75102615356445	3.22056841850281	-33.42784881591797	7.64196729660034	-38.22068786621094	-26.47369956970215	26.50162124633789	9.17803668975830	9.02311611175537	-36.91005706787109	12.56847286224365	10.66319274902344	17.42105484008789	-1.16826927661896	23.15879440307617	-0.24311816692352	25.65148544311523	6.66757869720459	0.41084116697311	0.94561582803726	-47.84152221679688	-18.85536956787109	-33.05348205566406	9.68518638610840	10.95436286926270	7.27774143218994	-19.17808914184570	-20.66040611267090	14.31794738769531	-11.91806793212891	-10.83389282226562	6.44339847564697	-2.67276072502136	-22.94485855102539	5.27307033538818	9.00647354125977	0.67164170742035	-2.42063808441162	-1.30482029914856	10.50545597076416	2.38156175613403	-15.10621833801270	6.94076156616211	-16.17256927490234	-16.21574783325195	13.43715095520020	12.89711666107178	-13.24001598358154	14.67161369323730	0.40493863821030	19.74069595336914	-14.43851852416992	-1.37575078010559	1.53567075729370	11.92775726318359	-9.04228782653809	3.74573016166687	25.13077735900879	-1.42186391353607	-18.25430870056152	-9.73598480224609	-1.94751286506653	10.45706272125244	11.68547248840332	-19.69760513305664	16.55380439758301	-33.17000579833984	19.00098037719727	18.03236007690430	4.37952423095703	-16.00511741638184	38.90145492553711	-11.62656021118164	-12.42658519744873	9.03082752227783	15.04840087890625	-54.68520355224609	-14.25569152832031	-16.93595504760742	-0.36717158555984
CHEMBL1949	-25.15256500244141	12.10046577453613	-1.69581997394562	10.89575767517090	-18.01915550231934	2.81885504722595	3.14436912536621	5.47042131423950	-4.34505128860474	-17.52959823608398	-0.00212529301643	12.39932632446289	-4.71436977386475	-3.16395759582520	0.93753683567047	27.66837310791016	-3.35456633567810	22.89538955688477	-11.59680938720703	10.21230506896973	14.19346618652344	8.30140113830566	-30.71367263793945	8.59540271759033	-41.81204986572266	-30.10478210449219	32.11766815185547	2.37807703018188	6.78485774993896	-36.47064590454102	6.14980316162109	5.05878353118896	15.75214290618896	-1.85442626476288	23.87000465393066	-3.25009703636169	29.73034286499023	7.82462596893311	-0.80895894765854	-5.57779693603516	-51.61279296875000	-22.37667274475098	-31.48487854003906	5.09562587738037	7.91072463989258	12.78146362304688	-18.88068580627441	-27.01351737976074	7.28606128692627	-11.18584251403809	-11.98289394378662	11.90300464630127	-1.82489407062531	-21.64494705200195	7.27450275421143	4.51377582550049	1.13392400741577	-3.72830748558044	10.00374221801758	5.16404151916504	2.46598529815674	-12.85647201538086	7.50671386718750	-21.84205245971680	-20.60286140441895	22.22433090209961	10.05626487731934	-22.26715278625488	19.11549377441406	6.27213859558105	17.96480941772461	-10.54831314086914	-1.48734211921692	3.56964445114136	10.98954677581787	-11.71451854705811	3.58802986145020	19.71018218994141	-0.02341680228710	-16.20423316955566	-4.84791326522827	-3.46583318710327	12.97433185577393	15.42717552185059	-19.69636154174805	16.13394165039062	-28.92147445678711	17.06356430053711	11.78584480285645	4.32772159576416	-16.04371070861816	36.61473846435547	-7.00887680053711	-20.73452377319336	11.39920616149902	9.32900619506836	-44.15135192871094	-17.10943984985352	-10.94655513763428	3.98901581764221
CHEMBL1075105	-25.56461334228516	10.35422992706299	-2.93951034545898	10.53876781463623	-18.06283569335938	4.48330259323120	2.50080561637878	5.65252208709717	-7.63155937194824	-18.53201103210449	0.12118685245514	11.83487033843994	-5.03653907775879	-7.07778358459473	0.68418550491333	25.50033378601074	-5.47854709625244	21.18165969848633	-7.46838188171387	8.63645458221436	16.88283920288086	6.61788082122803	-29.67107009887695	9.51954460144043	-38.40466308593750	-27.36559104919434	32.44551849365234	3.42017173767090	8.37416458129883	-33.16544723510742	9.54458045959473	6.39829778671265	14.77618408203125	-2.27056932449341	25.56656074523926	0.86555486917496	21.91423797607422	6.75217437744141	-0.19212986528873	0.45193862915039	-52.68485260009766	-24.54854202270508	-32.14916229248047	8.77948093414307	10.86619377136230	8.70804309844971	-17.55523300170898	-25.45913314819336	11.89535140991211	-13.39328670501709	-9.53825664520264	10.66818904876709	-3.63789463043213	-20.70289230346680	6.42889213562012	5.79375934600830	3.07222461700439	-0.81573760509491	7.88168001174927	11.54156684875488	5.99678707122803	-11.58954811096191	7.69606781005859	-23.44387054443359	-20.19276809692383	17.34933090209961	13.02964973449707	-20.21465492248535	18.78183746337891	8.03604030609131	19.93058013916016	-11.60568428039551	-1.83663773536682	4.72201442718506	12.45830535888672	-9.92263221740723	-0.85598158836365	23.58443832397461	-0.16588997840881	-18.81571960449219	-8.07700347900391	2.36918997764587	13.97273159027100	15.49705505371094	-20.35693359375000	19.26663970947266	-31.51970291137695	21.17270660400391	12.32374954223633	3.83553099632263	-13.37379550933838	38.18685150146484	-10.18585968017578	-16.23139381408691	13.41937446594238	10.38754463195801	-47.03656005859375	-15.57444381713867	-9.53137779235840	3.20205068588257
CHEMBL3817	-30.81499099731445	8.23657608032227	-7.98022127151489	11.03802013397217	-25.73176193237305	10.11637401580811	6.83431959152222	5.58720636367798	-14.17856788635254	-17.56083679199219	-0.58937525749207	6.05579233169556	-8.24789619445801	-7.03968763351440	-6.38754940032959	15.67268371582031	-4.43683099746704	25.51419067382812	-5.55750560760498	6.14621877670288	15.39604091644287	4.07579994201660	-23.97442626953125	10.55405807495117	-38.11141204833984	-23.88804054260254	22.96322059631348	12.46934890747070	7.50130271911621	-35.15572738647461	11.73441505432129	13.10677814483643	14.84449195861816	-0.64446675777435	33.92062377929688	2.85588026046753	13.83060264587402	9.73531246185303	-6.63501071929932	9.54301452636719	-59.80685424804688	-23.76264953613281	-36.05534362792969	10.55112457275391	4.09453964233398	9.19836044311523	-18.86108779907227	-19.69868087768555	19.79992485046387	-23.62851333618164	-0.87297523021698	11.82670879364014	-0.17382043600082	-16.84447097778320	4.20678472518921	3.22078180313110	-2.41646003723145	5.90629005432129	8.48570346832275	15.06568145751953	5.77575874328613	-13.35077953338623	14.10278129577637	-19.96520614624023	-17.79451560974121	16.29959106445312	15.75189208984375	-15.62685012817383	23.07826423645020	-0.59706449508667	13.31564903259277	-7.05451774597168	7.62286710739136	-0.41258603334427	12.54993629455566	-11.41866588592529	-1.58772873878479	27.95689582824707	1.57560324668884	-17.88460159301758	-10.14067173004150	3.33635759353638	15.54432392120361	11.76827144622803	-18.89601135253906	17.03409385681152	-32.94221496582031	16.46827697753906	15.88655090332031	7.17695426940918	-19.12607383728027	41.29456329345703	-1.88794589042664	-12.21351432800293	15.38664245605469	9.27809524536133	-52.79233551025391	-9.67731285095215	-8.21885871887207	4.29042148590088
CHEMBL4278	-26.59312248229980	13.42590332031250	1.44342350959778	9.86991214752197	-20.37555122375488	4.93602228164673	-2.75320649147034	6.73519754409790	-10.38337326049805	-22.34488296508789	-0.18113750219345	14.60914039611816	-3.60162806510925	-4.11443185806274	-1.41460227966309	21.87825775146484	-5.39485836029053	27.45414352416992	-8.26404762268066	6.78171062469482	13.37319469451904	3.49632453918457	-30.80379676818848	6.92206859588623	-39.30829620361328	-30.37016296386719	31.08809661865234	9.48526763916016	11.59109592437744	-35.86600875854492	11.68602085113525	8.03678607940674	15.14228248596191	-0.83479833602905	23.78442764282227	-2.32539510726929	26.42489242553711	6.56203174591064	-2.21429753303528	0.97637116909027	-51.80243682861328	-21.65768814086914	-31.87819862365723	8.17498016357422	13.74802780151367	8.69262790679932	-17.39640235900879	-22.74362564086914	13.10533428192139	-14.57932472229004	-12.28771972656250	9.60290718078613	-4.32912921905518	-22.46462631225586	8.21414470672607	3.67887830734253	1.79386794567108	-4.42319297790527	4.06937360763550	10.40641021728516	4.30782794952393	-13.11196899414062	9.53053092956543	-21.52842330932617	-17.43181419372559	15.71883296966553	13.95937347412109	-17.72812461853027	19.13260459899902	5.49955081939697	21.65199470520020	-12.41187477111816	-0.03892445564270	2.96281862258911	13.27811431884766	-9.63241958618164	4.02160596847534	25.43255233764648	-0.89681500196457	-16.32924652099609	-10.27963066101074	-0.83002430200577	14.43528652191162	10.68765544891357	-17.72468566894531	16.22852325439453	-33.54969024658203	21.27678871154785	14.07791519165039	3.71669745445251	-14.70558357238770	35.94261550903320	-10.40700912475586	-16.27800369262695	10.40147209167480	14.12120151519775	-49.92834472656250	-11.94780445098877	-13.48431968688965	-0.14314162731171
CHEMBL5742	-19.19248199462891	13.64078330993652	2.72816467285156	10.51362037658691	-19.89032173156738	12.92183303833008	8.60848808288574	9.68501853942871	-19.65218544006348	-9.70427799224854	0.49055764079094	7.24008035659790	3.54299783706665	-9.82549095153809	0.69252455234528	23.62075424194336	-4.59798097610474	21.32016563415527	-1.50433564186096	8.31005668640137	13.15498161315918	8.77324485778809	-25.54665756225586	14.65563201904297	-42.80158233642578	-36.45077896118164	25.27425003051758	4.49092006683350	12.24893188476562	-36.36590957641602	11.80806922912598	14.22740173339844	15.85598754882812	0.72239345312119	27.98923301696777	3.13865756988525	13.61396980285645	6.67645931243896	0.78375196456909	4.28400039672852	-51.53270721435547	-30.00399017333984	-42.85366821289062	13.74755287170410	7.63139057159424	6.31432819366455	-23.79092979431152	-21.99222755432129	14.55405139923096	-10.01070404052734	2.83489036560059	16.79747200012207	-10.31376743316650	-20.61767959594727	-1.92249071598053	7.24151802062988	4.86135101318359	3.49188804626465	3.50450468063354	14.09033966064453	1.09135484695435	-9.14235973358154	9.94326496124268	-13.29738426208496	-20.42217445373535	18.47586059570312	15.39105224609375	-11.30812835693359	14.03651428222656	-1.50336134433746	12.04345703125000	-11.63010787963867	2.12723660469055	0.27577853202820	11.39409255981445	-10.25697803497314	-1.34675860404968	20.05950546264648	-2.14609479904175	-21.51213836669922	-0.95820683240891	-4.70892763137817	7.91935920715332	13.20796489715576	-15.18772506713867	21.42893218994141	-34.21704864501953	20.73534202575684	19.79407882690430	8.92814636230469	-22.24152946472168	37.27835083007812	-0.52827173471451	-15.50794792175293	12.19529819488525	13.12800598144531	-56.76138687133789	-15.64259529113770	-18.99579811096191	1.33470368385315
CHEMBL4630854	-25.26787948608398	12.65006828308105	-5.83989143371582	3.42245864868164	-16.29884910583496	0.49641430377960	-1.21948122978210	7.45447587966919	-6.81766843795776	-24.35831642150879	-0.15560039877892	13.76938343048096	-6.36739158630371	-6.64141559600830	-1.70768105983734	28.88186264038086	-3.11221623420715	22.02078819274902	-13.64305686950684	11.54557228088379	19.47454643249512	4.79030227661133	-30.35998535156250	13.58055591583252	-39.61185455322266	-31.19840621948242	29.64710807800293	-2.08930015563965	9.28568744659424	-34.38599395751953	2.26140785217285	2.61902785301208	14.95554351806641	-5.23293685913086	22.52018356323242	1.64917504787445	28.25955581665039	8.43800258636475	-0.16040205955505	-5.43971300125122	-52.36141204833984	-25.83345985412598	-31.06107330322266	7.75173377990723	11.53306102752686	9.58293151855469	-14.37022209167480	-26.59838104248047	4.91947555541992	-14.43565559387207	-10.85744857788086	11.27219581604004	-2.89737176895142	-22.39602279663086	8.72730159759521	5.53627204895020	2.74243831634521	-0.52567362785339	13.07871246337891	7.14728212356567	-0.42507916688919	-11.85833549499512	4.24271106719971	-24.37704086303711	-21.56935691833496	21.30823135375977	14.19863700866699	-23.25884819030762	16.14161682128906	12.27172470092773	21.14328956604004	-10.09734249114990	-6.38933086395264	8.66140365600586	11.93756294250488	-14.28732490539551	1.41238760948181	21.19858169555664	-1.86650514602661	-17.54486274719238	-9.04978275299072	5.55954980850220	17.42728996276855	16.00434684753418	-22.94029617309570	16.62058258056641	-28.32035064697266	22.84961891174316	11.69299125671387	3.45625686645508	-12.26566600799561	34.85875320434570	-10.81046104431152	-19.94218826293945	11.74013710021973	8.56315231323242	-40.90904998779297	-15.46557426452637	-9.76212310791016	7.06164121627808
CHEMBL2082	-26.95529556274414	11.57385349273682	-6.20040798187256	5.97478818893433	-19.91051292419434	-0.08477982878685	-1.06756687164307	8.56337833404541	-2.87119531631470	-25.35070800781250	0.46094775199890	14.77695274353027	-7.74143362045288	-5.29110860824585	-0.96425414085388	30.28557968139648	-0.54188352823257	22.14002609252930	-12.09278106689453	10.12291336059570	19.82886314392090	6.04177522659302	-30.25815200805664	12.09582138061523	-38.77390670776367	-28.85732460021973	30.28740310668945	1.84889590740204	5.75967407226562	-35.00991821289062	3.27922296524048	1.70184588432312	15.06119918823242	-7.34239196777344	25.56155204772949	2.06747484207153	26.72198867797852	9.44498825073242	0.12203933298588	-5.16853094100952	-51.48063659667969	-29.38859939575195	-28.92594337463379	8.74581527709961	8.60377979278564	10.74809646606445	-15.03633975982666	-28.71868515014648	6.27394008636475	-14.36070632934570	-11.73336696624756	13.85443592071533	-2.58674550056458	-24.26450157165527	10.03107070922852	6.40656328201294	1.03165936470032	-1.12895035743713	15.98631381988525	6.77044582366943	2.16928672790527	-12.39912986755371	5.90198564529419	-22.15369606018066	-20.81986236572266	19.47569656372070	11.46541500091553	-26.96140861511230	16.86652374267578	11.08636093139648	19.55228042602539	-10.36690521240234	-6.16487026214600	11.17504978179932	13.20508575439453	-15.03870773315430	1.91165685653687	19.80455970764160	-0.13923744857311	-17.91758918762207	-11.13288497924805	5.28168630599976	18.01344871520996	16.53299140930176	-21.51492500305176	15.78200531005859	-28.23788642883301	21.34334754943848	9.69301223754883	4.67954158782959	-14.49232101440430	37.04482650756836	-11.14945602416992	-17.21142196655273	12.73235225677490	7.16227340698242	-39.33713912963867	-16.34487152099609	-8.43495464324951	7.15247535705566
