Q99935	-44.61784744262695	12.49668884277344	-13.86396312713623	10.79698753356934	-26.33543014526367	14.42864418029785	6.69409084320068	21.52640914916992	-20.18189239501953	-21.06150436401367	9.95501899719238	10.89881134033203	0.76385170221329	-10.18285846710205	-2.61420750617981	25.14069366455078	0.28516450524330	30.21448898315430	-11.78119277954102	12.39176845550537	16.30765914916992	15.11141586303711	-41.65144729614258	22.00069046020508	-58.42127227783203	-53.62503814697266	42.56792831420898	4.66408824920654	22.38883972167969	-51.65845108032227	14.91881370544434	12.43029594421387	20.26651763916016	4.12450981140137	39.80258178710938	1.06575620174408	33.61181259155273	15.21758460998535	-13.23126888275146	1.52190780639648	-84.15734100341797	-30.74905586242676	-57.26979446411133	20.66261863708496	18.17621231079102	16.56670761108398	-24.48001861572266	-33.73550415039062	28.20023345947266	-32.75301361083984	-5.87632179260254	17.52865791320801	-5.29551696777344	-31.97472763061523	6.97367954254150	1.38239192962646	-3.92158007621765	11.46035385131836	5.22721290588379	25.02283096313477	0.21665957570076	-12.47260856628418	14.41534328460693	-20.27593803405762	-26.77832984924316	23.31739425659180	24.59162902832031	-27.43055343627930	33.13453292846680	11.57009124755859	17.43209075927734	-13.96265029907227	3.77907848358154	6.10597610473633	12.37971401214600	-29.22434997558594	-6.41978979110718	39.12531661987305	-7.77967739105225	-25.84654235839844	-12.39567565917969	0.28157123923302	26.45876502990723	1.61833953857422	-30.47910499572754	30.76945114135742	-45.96450805664062	29.54085159301758	29.10535812377930	8.41482734680176	-27.23385429382324	51.46630859375000	1.97814810276031	-24.58803749084473	26.61773681640625	13.66585826873779	-74.80924987792969	-18.80394172668457	-14.37826347351074	7.20501899719238
Q8TAX7	-74.30895996093750	17.16646385192871	-34.38883590698242	19.05778503417969	-41.20431518554688	26.11640167236328	15.04670524597168	25.92078018188477	-24.28791046142578	-31.69481277465820	21.27366065979004	4.12296056747437	-9.24346542358398	-13.07152175903320	-4.27261495590210	29.68511199951172	-10.61779499053955	45.81082534790039	-23.10480499267578	10.39811134338379	19.98200988769531	25.17760467529297	-62.06669998168945	27.52057838439941	-90.21342468261719	-62.81026077270508	66.33724975585938	22.44594573974609	35.58029556274414	-71.74496459960938	35.89031600952148	30.30272293090820	25.04758834838867	10.21826362609863	79.85614776611328	-1.35823655128479	41.65740585327148	18.96483230590820	-34.16398620605469	12.88005065917969	-137.55378723144531	-33.25308227539062	-89.56670379638672	37.53584289550781	27.56409072875977	27.82152938842773	-33.20277404785156	-33.98624801635742	66.04907226562500	-65.93714141845703	-9.51741790771484	18.38962173461914	-3.29404854774475	-37.20169448852539	14.26709365844727	-14.20687007904053	-13.14616203308105	15.23213768005371	-4.87348747253418	51.02023315429688	2.15060448646545	-10.02227783203125	25.06357574462891	-35.45169067382812	-36.06164550781250	22.43010902404785	44.65695953369141	-41.17600250244141	61.01624298095703	11.45938682556152	19.49723434448242	-21.10250473022461	22.18927001953125	-3.15669131278992	21.91021347045898	-54.44368743896484	-13.65387344360352	68.03379821777344	-12.20400428771973	-32.44792938232422	-26.39814758300781	6.95430040359497	51.21720886230469	-5.41393756866455	-47.50726318359375	46.75392913818359	-84.20190429687500	53.80687713623047	43.10353088378906	10.64145946502686	-33.91017532348633	89.93235015869141	6.92697763442993	-30.60668754577637	40.61206436157227	24.65011596679688	-123.78480529785156	-22.54566001892090	-11.05510425567627	14.94606876373291
P02808	-7.97049236297607	5.61350345611572	0.18216675519943	2.00935745239258	-6.22299385070801	2.06879448890686	1.97977626323700	1.67604088783264	-2.04862356185913	-6.68245983123779	1.00905919075012	4.67087268829346	1.65621948242188	-1.70574045181274	0.34689432382584	8.61986827850342	-0.18148614466190	8.69964981079102	-3.11899042129517	4.08341407775879	3.30624890327454	1.81086087226868	-9.01046371459961	5.42371273040771	-13.89402294158936	-16.83382415771484	10.60180282592773	2.56744909286499	3.39615345001221	-13.66517543792725	1.66337454319000	2.55222392082214	3.79871988296509	-1.40330457687378	10.01988220214844	0.73437148332596	5.00652122497559	4.85495233535767	-0.45544010400772	-0.20172946155071	-18.47886276245117	-9.09392452239990	-13.59833240509033	4.41798114776611	4.41840314865112	0.82507151365280	-7.44666910171509	-9.37674522399902	5.10484790802002	-7.62059593200684	-2.15232896804810	6.44446372985840	-1.19990062713623	-6.98795318603516	-1.27492415904999	2.31100034713745	1.53294837474823	1.42294883728027	4.36380338668823	5.22340154647827	0.14949375391006	-4.92486572265625	4.61721897125244	-2.16736888885498	-7.31187629699707	6.16778659820557	7.08402919769287	-7.27065467834473	8.99328994750977	0.88321232795715	4.54758834838867	-2.70186710357666	-0.15338203310966	2.44358110427856	4.24989128112793	-5.63756608963013	0.45060944557190	8.57588577270508	-2.38759136199951	-8.25008010864258	-1.49882876873016	2.69518089294434	7.12959671020508	4.21380758285522	-5.55197525024414	8.68426418304443	-11.61830806732178	7.95805072784424	7.69108200073242	1.18077087402344	-4.70092010498047	12.82247543334961	-1.54779946804047	-4.28559541702271	4.11975669860840	3.21181392669678	-18.28335762023926	-3.83768939971924	-5.46740245819092	-1.42398464679718
P04280	-55.91008758544922	32.33583068847656	-24.21603965759277	50.67195129394531	-43.48304367065430	22.48982238769531	-0.27545014023781	22.49659729003906	-32.78162002563477	-34.75700759887695	18.72685813903809	-7.14103603363037	-9.11251926422119	1.79007697105408	-19.66913032531738	10.24920082092285	-9.97823524475098	44.26354217529297	-17.12727355957031	-35.18719100952148	-25.53171920776367	-5.06686210632324	-59.35330581665039	17.47396278381348	-66.35864257812500	-88.09227752685547	77.24060821533203	66.50839233398438	18.55209350585938	-98.38804626464844	42.20278930664062	33.68126296997070	-10.80039215087891	5.91613817214966	116.58497619628906	21.13112640380859	-7.64283561706543	38.49738311767578	-5.47310638427734	22.08525085449219	-169.08120727539062	-35.86391830444336	-104.81505584716797	32.73313140869141	13.18709373474121	18.96776199340820	-39.82261657714844	-47.06301879882812	79.64270782470703	-101.83737945556641	-24.16925811767578	14.60793495178223	20.07409286499023	-43.53560638427734	-23.39970779418945	25.07244491577148	-2.71849727630615	18.69380950927734	7.29549837112427	76.30229949951172	15.02939224243164	-41.17694091796875	46.99307250976562	-36.38914489746094	-33.69359588623047	25.16308593750000	60.47503662109375	-48.85157775878906	110.82151794433594	-21.91702079772949	23.04970169067383	-0.85213100910187	63.20973205566406	-3.34942293167114	2.74970626831055	-45.72970581054688	7.44167900085449	88.75393676757812	7.31591606140137	-33.38608169555664	-33.71643447875977	-12.47271347045898	45.90824127197266	-3.88145947456360	-6.97223663330078	79.56447601318359	-84.98758697509766	58.13850784301758	56.44636917114258	4.17296028137207	-6.19297170639038	111.46091461181641	23.14114761352539	-6.85235786437988	7.92184114456177	31.92045593261719	-148.30661010742188	9.03230094909668	-35.78009033203125	-25.40022277832031
Q96DR5	-41.49650573730469	15.33753776550293	-12.69329452514648	11.06605148315430	-23.92168045043945	9.28809165954590	-1.60087418556213	15.45989131927490	-11.72045516967773	-34.52492904663086	5.81305646896362	20.32514572143555	-3.86223316192627	-8.78819942474365	-2.39223718643188	38.38111114501953	-0.30343371629715	30.45764541625977	-15.94378471374512	13.04411315917969	28.98880767822266	14.23326683044434	-43.05204010009766	23.61858558654785	-62.49308776855469	-49.77297592163086	42.51435470581055	0.08393555879593	12.14023685455322	-49.22201538085938	4.34473133087158	4.11552524566650	24.92252159118652	-6.51846933364868	37.91559219360352	3.10031986236572	40.17052078247070	12.25198936462402	-2.24064660072327	-7.95987701416016	-73.00408172607422	-33.09163284301758	-47.57912063598633	14.32444953918457	20.03428268432617	18.92263031005859	-22.41601943969727	-41.01139068603516	9.26464557647705	-24.78368186950684	-12.68255233764648	19.29608535766602	-7.89483547210693	-33.75835418701172	13.21785926818848	6.51130962371826	-0.73814868927002	-2.08035397529602	12.95818996429443	8.62460327148438	0.85223543643951	-17.61450958251953	7.91267585754395	-28.78755950927734	-23.83689689636230	25.71789550781250	20.59589385986328	-36.05356216430664	30.38944244384766	17.08792114257812	23.06064987182617	-15.11042404174805	-10.61172008514404	12.41906833648682	18.02997970581055	-24.49197578430176	2.15677928924561	33.53337860107422	-4.27605009078979	-25.96507263183594	-13.61202335357666	6.92451333999634	30.70943832397461	17.81188583374023	-33.16357421875000	24.55079269409180	-45.18506240844727	32.81424713134766	21.25548171997070	8.07142066955566	-22.06852340698242	49.60327148437500	-11.00527954101562	-26.14270782470703	20.25290489196777	10.89117431640625	-65.47203826904297	-21.67518615722656	-12.39278411865234	8.85435199737549
P12273	-24.03110313415527	9.12577533721924	-2.75626850128174	6.37649345397949	-14.86936378479004	4.89697122573853	1.04812824726105	8.05192089080811	-6.97513961791992	-16.12521743774414	1.34515583515167	10.72250080108643	-1.79333209991455	-5.56505727767944	-1.50109696388245	21.70125007629395	-1.60988831520081	19.27914810180664	-9.66957950592041	7.84424018859863	15.99048614501953	6.02540397644043	-27.69161605834961	12.32829284667969	-34.16558837890625	-24.60099792480469	25.05857086181641	0.19595783948898	8.32341575622559	-31.67875099182129	6.66384601593018	3.16484975814819	14.72032546997070	-3.42983031272888	18.63991928100586	-0.59610044956207	24.05554580688477	8.69839191436768	0.09724883735180	-2.78373885154724	-41.99347686767578	-21.96792602539062	-27.43364906311035	8.83771514892578	10.15628623962402	9.64111995697021	-15.80446338653564	-23.82298469543457	6.06369590759277	-12.07576942443848	-7.39361619949341	11.14292907714844	-6.20159912109375	-18.68052101135254	8.85227584838867	5.11058044433594	-0.60901534557343	-0.95655381679535	7.68391704559326	5.52662849426270	-0.29137963056564	-9.25799274444580	4.01827144622803	-19.05087852478027	-17.22911453247070	14.89870071411133	11.05408382415771	-19.10738563537598	15.49740505218506	9.25137329101562	16.82188796997070	-10.08751296997070	-6.18874454498291	8.25134181976318	10.09790134429932	-12.67717361450195	0.81234079599380	19.06988143920898	-1.59921634197235	-16.97942543029785	-7.13779735565186	2.00079274177551	14.01859474182129	10.52706909179688	-19.69282341003418	15.61855030059814	-25.62143325805664	18.79020118713379	12.68387603759766	5.06170654296875	-12.11317634582520	31.68799781799316	-6.75040435791016	-16.36376571655273	9.68221473693848	6.08792877197266	-37.50061798095703	-16.44419670104980	-8.19833660125732	4.73805475234985
P23280	-49.33301544189453	24.23023223876953	-4.74959182739258	10.53683853149414	-33.65885925292969	11.17649936676025	2.16971898078918	13.65461158752441	-17.25478935241699	-35.67362213134766	4.65074491500854	25.98663711547852	-7.32653236389160	-12.69463062286377	0.28164041042328	46.27375030517578	-4.53982830047607	44.73741149902344	-19.81207847595215	21.10524749755859	32.81826019287109	9.79577827453613	-52.82713699340820	26.24078750610352	-72.72587585449219	-54.02626037597656	51.87953567504883	8.67802143096924	17.18030929565430	-63.49489593505859	12.47101593017578	6.52219343185425	31.47726821899414	-4.83354854583740	42.88301849365234	3.58702564239502	40.83982849121094	13.86965465545654	-3.45531415939331	-1.33422505855560	-94.41676330566406	-47.73100280761719	-57.49392700195312	18.75761985778809	17.55435943603516	16.07642745971680	-35.03752136230469	-52.13098144531250	18.15959167480469	-26.49428749084473	-12.26997280120850	25.20590782165527	-7.19502067565918	-45.47451400756836	11.60863494873047	10.26351165771484	6.25678920745850	1.17918968200684	17.52022933959961	16.64538955688477	6.78676462173462	-19.73521041870117	20.13148117065430	-33.78810501098633	-33.86821365356445	32.43092346191406	29.63043212890625	-35.29533004760742	35.09629058837891	9.16193866729736	31.66368103027344	-20.52773284912109	-5.62887668609619	10.89827156066895	19.37058448791504	-24.98967361450195	-0.06980133056641	43.00259017944336	-6.88806104660034	-31.96483039855957	-17.31940650939941	5.77445220947266	31.72865295410156	20.88490295410156	-35.38856506347656	31.45252990722656	-54.26982116699219	40.85987472534180	26.68491363525391	7.76476860046387	-27.89160537719727	63.76564788818359	-10.73103427886963	-29.52766418457031	23.50145339965820	15.56436634063721	-86.91886901855469	-29.29749679565430	-17.38386154174805	8.26168727874756
P98088	-1128.46594238281250	171.71365356445312	-511.14788818359375	334.99377441406250	-600.07519531250000	352.01666259765625	211.55902099609375	371.48376464843750	-329.20938110351562	-389.78338623046875	205.73507690429688	225.99594116210938	-108.36616516113281	-116.89050292968750	-126.30975341796875	468.60760498046875	-121.66744995117188	737.86651611328125	-425.93258666992188	469.69982910156250	384.48138427734375	429.73950195312500	-1112.60571289062500	385.20574951171875	-1390.94934082031250	-882.35778808593750	916.87084960937500	485.81079101562500	485.37347412109375	-1067.13732910156250	520.02355957031250	423.14175415039062	510.92102050781250	44.60038375854492	1122.25341796875000	-62.27905273437500	932.28784179687500	184.40893554687500	-491.89047241210938	103.05517578125000	-1897.02832031250000	-483.55706787109375	-1234.41259765625000	457.64508056640625	497.16406250000000	456.47851562500000	-524.84863281250000	-485.85467529296875	831.51477050781250	-887.00476074218750	-113.06242370605469	210.79277038574219	-146.30596923828125	-703.33337402343750	450.30853271484375	-195.99902343750000	-141.00740051269531	89.97653198242188	-79.11186218261719	668.01672363281250	58.67893981933594	-178.82196044921875	387.46014404296875	-508.96179199218750	-577.52673339843750	369.04129028320312	738.82348632812500	-703.79278564453125	766.77172851562500	184.90299987792969	483.89746093750000	-374.05511474609375	193.73358154296875	0.02968955039978	286.37768554687500	-774.19000244140625	-22.24600601196289	952.73242187500000	-114.95513916015625	-501.01831054687500	-266.12445068359375	-82.80805969238281	605.29479980468750	-27.83285903930664	-725.58215332031250	606.23706054687500	-1174.49475097656250	727.44873046875000	509.02862548828125	153.59819030761719	-623.14788818359375	1360.00476074218750	14.96888637542725	-596.27667236328125	682.52630615234375	436.50610351562500	-1832.70239257812500	-394.72625732421875	-82.05855560302734	219.35031127929688
O43511	-126.88591003417969	52.75970840454102	-17.71768951416016	39.04983139038086	-76.92057800292969	32.10887145996094	14.49420166015625	44.38477325439453	-46.61127090454102	-87.10668182373047	0.70428442955017	58.13504791259766	-0.42350697517395	-39.60039901733398	-9.61692237854004	110.44601440429688	0.41030037403107	93.93122863769531	-42.42053222656250	43.92971801757812	86.58859252929688	39.57912063598633	-144.40203857421875	65.90567779541016	-201.93475341796875	-165.74263000488281	133.43307495117188	0.82939672470093	49.08352661132812	-168.33834838867188	31.18838882446289	29.88524627685547	72.35705566406250	-14.86334991455078	119.43190002441406	6.64487504959106	115.68151855468750	41.23344421386719	-3.68555235862732	-15.66103649139404	-232.63087463378906	-114.54939270019531	-162.92269897460938	41.81958007812500	50.75671386718750	54.44539260864258	-82.67036437988281	-124.74911499023438	37.83049011230469	-63.35549545288086	-33.12010192871094	64.29411315917969	-28.59842300415039	-108.36697387695312	34.40100097656250	26.31960105895996	2.72434139251709	-2.22239089012146	42.91387939453125	36.99517059326172	-0.18942379951477	-45.32756805419922	27.21965408325195	-81.93120574951172	-93.40933990478516	89.26416015625000	65.60747528076172	-94.08634185791016	80.60270690917969	46.68473052978516	79.34193420410156	-51.41661453247070	-28.31614494323730	23.42759513854980	54.46291351318359	-62.89523315429688	-3.00762081146240	99.69624328613281	5.82411003112793	-85.13750457763672	-29.53497314453125	6.59308481216431	67.23445892333984	58.61380386352539	-97.37451171875000	89.37482452392578	-140.74429321289062	89.99160003662109	63.08087158203125	28.02470016479492	-84.98816680908203	160.54788208007812	-27.60691452026367	-84.00137329101562	65.29467773437500	37.05045318603516	-207.84191894531250	-82.30719757080078	-52.29030609130859	17.95653724670410
P15515	-9.47061824798584	6.15972042083740	-0.80696684122086	0.72059392929077	-6.59773731231689	1.40009450912476	2.06958198547363	1.02581262588501	-4.30644464492798	-7.25897550582886	1.28692674636841	4.31441402435303	-1.39626324176788	-2.43628239631653	-1.95417344570160	8.09602737426758	1.10024356842041	9.59306907653809	-3.40872335433960	3.69602680206299	6.57734298706055	2.24514198303223	-9.00685691833496	2.34212923049927	-12.43204784393311	-11.97172260284424	9.68108272552490	1.17464745044708	4.14057111740112	-12.42687892913818	1.87316536903381	0.21557563543320	5.48248481750488	-1.41162991523743	5.61994743347168	-0.37350940704346	8.39521980285645	4.64379739761353	0.06635260581970	-0.43656307458878	-18.11074638366699	-9.12856101989746	-10.31001853942871	2.33010339736938	2.49834537506104	1.85512578487396	-7.36638736724854	-8.13777351379395	2.23279619216919	-3.19876289367676	-2.50082492828369	5.62357425689697	-0.12793554365635	-5.36994028091431	1.26092720031738	2.24206137657166	-0.41169714927673	1.82015728950500	2.78922677040100	-0.06476956605911	-0.61977469921112	-3.81410026550293	2.98556232452393	-6.22899150848389	-6.11570262908936	7.39001893997192	4.95524311065674	-7.87608289718628	5.65230035781860	2.66179418563843	5.81593799591064	-3.81346225738525	-2.67088294029236	0.51613247394562	5.39664936065674	-2.97422599792480	-0.43846923112869	5.86338424682617	-1.28535223007202	-6.88345098495483	-1.19333982467651	0.58753669261932	6.10114765167236	4.09275054931641	-6.45269680023193	5.75580024719238	-8.99514102935791	4.99182891845703	5.15512800216675	0.63208073377609	-7.51184082031250	10.79478931427002	-3.29734063148499	-6.35599708557129	3.44009923934937	3.45992755889893	-13.78833770751953	-5.18938064575195	-4.28469896316528	1.93176293373108
Q99518	-86.39696502685547	33.87473297119141	-9.27866172790527	23.96254920959473	-62.39154815673828	15.03725051879883	0.65422403812408	27.25906753540039	-24.61554145812988	-67.22625732421875	6.02487421035767	42.29274368286133	-10.32632064819336	-20.49824714660645	-5.31628322601318	83.61521911621094	-1.72460532188416	72.13899993896484	-29.94664382934570	30.06403160095215	60.99274063110352	18.60686683654785	-96.13833618164062	38.65980529785156	-130.97325134277344	-102.20292663574219	90.83477783203125	1.39767205715179	36.23007583618164	-112.58032226562500	19.22952270507812	14.16019439697266	51.46060943603516	-9.95549392700195	82.22280883789062	0.25965636968613	82.05963134765625	27.06677436828613	-3.79793882369995	-14.17690658569336	-164.24969482421875	-79.37077331542969	-108.94583129882812	27.67802429199219	33.14888763427734	33.63764953613281	-59.42040252685547	-89.39574432373047	21.04840469360352	-45.81475067138672	-29.10408782958984	34.34225463867188	-14.50862979888916	-73.89851379394531	26.66057014465332	19.86296844482422	3.17187166213989	2.28701519966125	31.33486557006836	24.52423858642578	2.08563804626465	-35.05842590332031	21.79052734375000	-60.32437896728516	-59.10115814208984	55.09112548828125	44.51357269287109	-66.43233489990234	56.52035140991211	33.95630645751953	59.42470550537109	-37.66537094116211	-14.25034999847412	22.12250900268555	43.39636993408203	-41.94373703002930	-1.38062548637390	66.06321716308594	-5.18755245208740	-62.38243865966797	-28.14696121215820	10.01119613647461	48.24478912353516	45.53946685791016	-66.45105743408203	49.23617553710938	-95.10502624511719	55.10334396362305	45.36169433593750	14.19034767150879	-48.06941223144531	112.44563293457031	-23.15184211730957	-59.09061431884766	40.02906036376953	27.17020797729492	-141.43092346191406	-52.43455505371094	-31.13431167602539	12.54350185394287
P20815	-76.41468811035156	34.52990341186523	-13.42384147644043	21.76511192321777	-50.84712982177734	16.74483108520508	6.07529687881470	26.11059188842773	-28.35314559936523	-67.55642700195312	9.28041553497314	31.64556503295898	-1.69137477874756	-25.25506019592285	-5.61318111419678	75.35641479492188	0.12081319093704	63.73021697998047	-28.97045326232910	32.47612762451172	57.71500396728516	16.98533248901367	-90.33132934570312	39.11299896240234	-123.69459533691406	-96.50788879394531	88.14707183837891	-5.21480560302734	34.83855056762695	-105.54454040527344	13.60703945159912	12.74316406250000	48.89748001098633	-12.23557662963867	74.16904449462891	1.88481962680817	77.37276458740234	27.73898124694824	-3.94644570350647	-11.32281875610352	-155.82836914062500	-75.11733245849609	-97.41519927978516	24.95401382446289	27.74500274658203	32.47482299804688	-48.49172210693359	-79.33473205566406	22.70899581909180	-43.08576202392578	-23.90116882324219	36.05936050415039	-17.15776443481445	-66.53694915771484	21.92694091796875	15.52907657623291	2.10865736007690	2.05112290382385	33.94057846069336	20.70518112182617	4.55208683013916	-29.09220504760742	18.82157707214355	-60.11519622802734	-60.30087280273438	59.40031433105469	40.40806579589844	-63.74304199218750	49.54083251953125	33.24042510986328	52.31901550292969	-34.04043579101562	-17.61950302124023	19.23986434936523	38.57284545898438	-41.07050704956055	-0.78219026327133	66.82669067382812	-2.64965105056763	-56.74940109252930	-21.74370956420898	10.40599632263184	49.11449050903320	39.84622573852539	-61.54550933837891	50.70217514038086	-88.65628814697266	55.72978210449219	46.08718109130859	18.42520713806152	-47.25175476074219	106.87687683105469	-21.57009506225586	-54.17712020874023	40.70378875732422	25.94101142883301	-129.21737670898438	-46.52154922485352	-33.87684631347656	11.39229393005371
P13646	-69.39451599121094	30.57907485961914	-17.88352966308594	20.19504165649414	-62.09934234619141	10.51641654968262	8.04816532135010	18.83735275268555	-26.07295608520508	-54.21666336059570	-7.51798248291016	32.98361968994141	-14.83146762847900	-12.83845520019531	-13.81119155883789	61.94178009033203	-10.16497993469238	65.61708831787109	-31.24282836914062	19.37571334838867	49.45113372802734	14.61322975158691	-81.19422149658203	34.74641036987305	-114.15478515625000	-79.81214904785156	70.13995361328125	18.62450218200684	14.24589061737061	-85.04621887207031	14.44622230529785	26.71275711059570	35.36446380615234	-9.14964771270752	90.06536865234375	7.56935262680054	60.96242523193359	16.90962028503418	-3.58442068099976	-2.21774101257324	-148.01896667480469	-62.21828460693359	-97.21450805664062	20.50115203857422	29.70634651184082	22.77584457397461	-53.10477447509766	-58.62834548950195	32.37450027465820	-53.42150878906250	-12.63976669311523	37.77161407470703	-8.69876575469971	-55.89431762695312	15.12860488891602	11.99758529663086	-3.59719657897949	-1.12182652950287	30.52565765380859	26.95610046386719	5.44909524917603	-43.83281707763672	32.23318862915039	-55.72494125366211	-55.97486877441406	44.43939208984375	37.51233673095703	-50.08197021484375	55.24049377441406	17.76793289184570	45.25624465942383	-24.30602836608887	-8.69896316528320	16.78421783447266	32.70977020263672	-37.90660858154297	3.37975907325745	59.94872283935547	5.19488906860352	-50.29396820068359	-19.71249771118164	11.11669731140137	38.46348571777344	47.49206924438477	-52.56727600097656	44.63222503662109	-88.52309417724609	58.41484069824219	31.56455230712891	23.01221084594727	-44.32220840454102	106.64048004150391	-23.42142486572266	-36.72630310058594	39.84714889526367	26.38519668579102	-128.41268920898438	-32.38026046752930	-23.19713592529297	13.29706573486328
Q9UBG3	-75.86581420898438	28.89841461181641	-22.91402626037598	23.71461677551270	-64.60643768310547	25.57227325439453	7.83481884002686	15.25626850128174	-25.17642593383789	-44.63664627075195	9.32718944549561	27.35353088378906	-27.92352485656738	-25.54859924316406	-4.23487424850464	66.08588409423828	-15.85828208923340	75.93581390380859	-25.92886734008789	24.69596862792969	46.87164688110352	29.00836181640625	-77.39183807373047	47.44549179077148	-113.95049285888672	-73.77968597412109	76.53872680664062	31.43141555786133	7.09430837631226	-95.14743804931641	21.72126579284668	36.95205688476562	47.44343948364258	-4.18678569793701	94.23847961425781	15.02356910705566	63.79359436035156	18.53406906127930	-15.83166122436523	19.56232833862305	-161.61140441894531	-62.52434921264648	-95.82939910888672	24.45206069946289	19.18771743774414	33.98920059204102	-41.39784622192383	-70.14778900146484	44.77483367919922	-62.95483398437500	-7.67551612854004	44.34245681762695	-16.30168342590332	-68.46479797363281	12.19719314575195	15.95212554931641	2.95139861106873	4.64448595046997	23.52272415161133	39.86665344238281	17.41393661499023	-27.47642707824707	44.62351226806641	-49.90536117553711	-48.72253799438477	52.55873870849609	46.76673126220703	-53.19438552856445	69.25907135009766	4.27302551269531	50.90296936035156	-28.42147445678711	9.28691482543945	12.64968872070312	31.60888290405273	-41.58195877075195	4.80686426162720	80.58682250976562	-17.82848358154297	-49.65476226806641	-29.95901679992676	9.39901065826416	61.95727920532227	40.13056564331055	-55.81501007080078	57.87617874145508	-99.37449645996094	72.63163757324219	42.74740600585938	10.86880397796631	-47.16643524169922	117.51687622070312	-16.87015151977539	-34.91055297851562	46.41799926757812	29.12509918212891	-161.42739868164062	-34.36631393432617	-16.54698753356934	9.89229965209961
Q96PD4	-25.19678688049316	7.45179033279419	-3.09027719497681	10.56063175201416	-18.35594367980957	8.30637741088867	-1.92871546745300	8.45419120788574	-9.82703208923340	-20.39890480041504	1.63068842887878	10.03043365478516	-2.84764099121094	-9.02768516540527	-2.08760929107666	22.02808380126953	-2.11063241958618	23.14288711547852	-9.77120971679688	6.37366008758545	16.87241744995117	8.87002182006836	-30.57291793823242	11.42985916137695	-39.34258651733398	-30.18480300903320	26.23552703857422	6.10947942733765	10.15700340270996	-33.29565429687500	9.27928066253662	6.60672378540039	15.45576667785645	-3.09737968444824	26.17798233032227	0.56292426586151	25.22844505310059	7.44654369354248	-1.83137738704681	-4.06857299804688	-49.60628509521484	-21.05479049682617	-31.44947052001953	7.55847883224487	10.66067981719971	10.50889396667480	-16.53639984130859	-23.81954002380371	11.32967758178711	-15.06479454040527	-10.05489921569824	9.75754261016846	-4.87038135528564	-22.22988510131836	7.10975551605225	5.21881294250488	-1.06871461868286	-1.93873250484467	3.81459975242615	7.34908056259155	0.43284106254578	-9.98438644409180	6.38603305816650	-16.31069183349609	-16.92344093322754	16.57655334472656	13.23127937316895	-19.61269378662109	18.79162025451660	5.77622318267822	17.89292335510254	-10.92580795288086	-3.30296826362610	4.59375572204590	11.80603599548340	-14.24118804931641	0.66360855102539	21.18871879577637	-1.00480282306671	-16.10656929016113	-7.58959007263184	1.48960041999817	15.43110466003418	9.18566703796387	-18.98288536071777	16.29480743408203	-29.96897697448730	18.98983001708984	14.67470550537109	7.47406625747681	-14.60695171356201	37.03458404541016	-6.86899614334106	-16.23489379882812	12.59779930114746	8.01550483703613	-47.05788040161133	-13.24061489105225	-10.11494445800781	2.74294614791870
Q9Y4K0	-120.85597229003906	51.53978729248047	-9.13237953186035	44.09795761108398	-91.24491882324219	20.23274993896484	-3.24040484428406	24.44077682495117	-41.14159774780273	-87.39057159423828	-1.63986670970917	60.97386169433594	-27.50704956054688	-27.51807212829590	-5.23990201950073	118.30648803710938	-19.05212974548340	114.67140197753906	-42.50106811523438	44.98637771606445	77.04545593261719	31.91989326477051	-143.11392211914062	49.58963775634766	-188.10079956054688	-132.27291870117188	134.65321350097656	37.67072677612305	43.95959091186523	-172.10285949707031	45.98233795166016	33.95644378662109	76.54830932617188	-17.11026763916016	116.16448974609375	5.36760997772217	109.32725524902344	30.03551483154297	-6.92327022552490	-4.23796749114990	-236.17240905761719	-114.28013610839844	-149.31719970703125	43.73416137695312	43.99340057373047	42.92680740356445	-85.33712768554688	-117.66065979003906	47.47918701171875	-64.27290344238281	-40.57973861694336	48.13234710693359	-17.27912330627441	-99.35842132568359	32.77383422851562	28.75035476684570	10.89506149291992	-5.90203952789307	35.69567108154297	43.35641479492188	13.15192031860352	-61.26956176757812	38.94806671142578	-92.88493347167969	-83.51503753662109	81.61006164550781	67.55534362792969	-84.36656188964844	85.90863037109375	24.89891433715820	97.48994445800781	-55.96652984619141	-1.55877614021301	34.97692108154297	55.84918212890625	-52.62314224243164	12.29835414886475	101.30099487304688	-9.08298110961914	-80.95008850097656	-33.14834594726562	0.14160349965096	64.77825164794922	64.39412689208984	-92.34136199951172	76.28663635253906	-140.38613891601562	91.26603698730469	58.46416473388672	15.03536415100098	-72.58580780029297	174.20901489257812	-35.46305465698242	-71.01440429687500	54.04609680175781	46.69302368164062	-224.83865356445312	-73.30175781250000	-43.89929199218750	13.39308166503906
P55001	-28.45700454711914	13.91839313507080	-4.74651241302490	9.85178470611572	-21.90494346618652	5.74605846405029	-0.35286629199982	7.91851234436035	-12.02871513366699	-22.37743568420410	-1.04481673240662	15.49439907073975	-4.96983051300049	-6.48038148880005	-4.11185073852539	23.24223899841309	-4.83745288848877	27.31947708129883	-8.00906181335449	7.71657228469849	17.78931427001953	4.60519409179688	-29.10199737548828	11.43761062622070	-40.94581222534180	-27.92984390258789	29.94626235961914	10.05447673797607	7.65602397918701	-39.32425689697266	13.29251670837402	8.54519653320312	17.12484359741211	-3.79047393798828	28.45066261291504	2.80244445800781	23.79106140136719	6.47634077072144	-1.10021722316742	1.97458314895630	-56.49269866943359	-26.13442230224609	-33.60220718383789	10.97689437866211	11.09171772003174	8.51100921630859	-17.39724731445312	-26.79036903381348	15.55961608886719	-17.05577087402344	-12.51735877990723	6.20905065536499	-4.39993906021118	-23.50168228149414	5.53088474273682	8.82054138183594	2.08123302459717	1.53863179683685	4.65442180633545	15.60864639282227	5.56270313262939	-15.38229274749756	8.67847347259521	-19.75323867797852	-17.85833549499512	13.72390747070312	17.11478805541992	-16.42990112304688	20.92628097534180	1.29953587055206	16.37998390197754	-14.47340488433838	-0.79810291528702	7.29342365264893	14.21641445159912	-12.74113845825195	0.11565679311752	27.39674568176270	-4.86686801910400	-20.81612586975098	-12.86632919311523	2.22118377685547	19.31676101684570	12.99384498596191	-19.43102455139160	22.13875579833984	-35.63434219360352	27.02153587341309	15.74613761901855	2.29453873634338	-15.62021160125732	43.02416992187500	-11.75382614135742	-12.87711429595947	12.05439376831055	10.94904518127441	-59.07390975952148	-11.86635017395020	-12.69854354858398	0.33060514926910
P21815	-47.18867111206055	14.16878223419189	-18.31729507446289	19.20843505859375	-50.72774505615234	-6.72587680816650	2.17922163009644	7.45834350585938	1.89120948314667	-51.38143920898438	5.59315824508667	27.16093635559082	-19.30941390991211	-5.09569644927979	-7.87997055053711	48.04940414428711	0.44677621126175	44.57620239257812	-15.60950183868408	10.57336235046387	34.88481140136719	12.07976150512695	-53.05641555786133	19.83020401000977	-79.53627777099609	-42.71683502197266	51.50321197509766	16.68711090087891	11.43611621856689	-64.00719451904297	11.86920356750488	8.37913703918457	28.50296401977539	-3.23965096473694	63.61061859130859	-5.22467184066772	38.73632812500000	25.15244674682617	-11.05767822265625	-1.72789680957794	-102.12536621093750	-42.66734695434570	-56.53419876098633	16.69904708862305	21.54428863525391	13.19681167602539	-22.53178405761719	-49.13615036010742	22.91235351562500	-45.22436523437500	-18.54668045043945	21.39946556091309	-2.26743054389954	-32.70597076416016	29.56076812744141	-3.36493682861328	-2.77789831161499	3.93653392791748	28.40970802307129	21.87777519226074	9.54223251342773	-20.09758949279785	16.18938255310059	-43.21587371826172	-33.05990982055664	31.59383392333984	32.38163757324219	-57.22402954101562	28.95471382141113	22.73352432250977	37.90680313110352	-18.32872772216797	-0.30981844663620	25.06057357788086	29.05333328247070	-29.79088592529297	3.81252145767212	42.21151351928711	7.02332019805908	-29.28413772583008	-14.52481269836426	7.69479846954346	39.00915908813477	33.91687774658203	-42.36691284179688	28.28646278381348	-63.11090850830078	32.98820877075195	17.36101150512695	8.27048873901367	-28.35682296752930	77.41511535644531	-13.20813083648682	-29.84519577026367	21.23116493225098	18.55616378784180	-77.86767578125000	-25.89474487304688	-7.16127109527588	10.68911075592041
P45452	-72.26995849609375	33.36145782470703	-5.49415111541748	22.99962234497070	-50.62006759643555	10.87157344818115	12.45026302337646	23.14563369750977	-29.71075057983398	-59.34740447998047	2.70816421508789	35.89757537841797	-11.62191200256348	-19.23155212402344	1.04808235168457	79.89353179931641	0.13612763583660	62.97037887573242	-20.34460449218750	27.35599517822266	48.78916168212891	15.30120468139648	-81.83772277832031	30.90086174011230	-108.95063781738281	-88.77774047851562	83.50541687011719	4.24961614608765	27.03485870361328	-100.96070861816406	21.77364349365234	11.74314117431641	42.61214828491211	-5.81562185287476	70.15470123291016	1.19062829017639	62.94281768798828	25.41175651550293	-1.64176177978516	-2.55587100982666	-147.48880004882812	-85.56732177734375	-89.67739868164062	29.69301986694336	22.79496383666992	22.25483512878418	-49.65300750732422	-82.02415466308594	32.36773681640625	-37.70626831054688	-25.98010444641113	32.94749069213867	-9.50662326812744	-61.82941818237305	16.26307106018066	16.21919441223145	4.34608173370361	7.33407115936279	29.16435241699219	20.74164962768555	6.68179464340210	-32.78220367431641	22.94578361511230	-57.36864471435547	-56.73385238647461	56.82954788208008	39.52121353149414	-61.66528320312500	46.76289749145508	24.66360473632812	53.75635528564453	-30.94778251647949	-0.80796450376511	20.54420089721680	37.40977859497070	-35.84254074096680	1.00795030593872	58.19294738769531	0.03038030862808	-51.12465667724609	-21.80591964721680	7.86708927154541	38.14481353759766	38.53920364379883	-60.09365463256836	47.18297958374023	-82.25340270996094	54.79702758789062	39.66685104370117	15.15309524536133	-42.79920959472656	100.74591064453125	-14.92034149169922	-53.56024169921875	38.16666793823242	21.02572822570801	-123.22846984863281	-42.56204223632812	-29.34825134277344	13.55681800842285
P03956	-66.58399963378906	38.62420654296875	-4.82127571105957	23.74822616577148	-52.75393676757812	12.63112258911133	8.15103149414062	19.89967918395996	-22.05509567260742	-59.67346191406250	10.06801986694336	33.16517639160156	-15.91083335876465	-18.81366157531738	-1.13814818859100	77.39988708496094	-7.78514099121094	63.86640167236328	-22.66363525390625	24.00248336791992	42.41160202026367	15.42360877990723	-79.13322448730469	33.00559616088867	-110.09580993652344	-88.88912200927734	80.82903289794922	6.23487997055054	19.55505180358887	-97.83293151855469	15.77641773223877	11.03376102447510	42.23606109619141	-10.42319965362549	69.01467132568359	-0.17692339420319	62.94572448730469	22.60024642944336	-0.09902310371399	-2.80210542678833	-147.52064514160156	-82.40754699707031	-91.70773315429688	27.90595817565918	23.94110488891602	22.99907875061035	-50.08581924438477	-78.76815795898438	29.20447158813477	-39.62712478637695	-23.10354423522949	38.09570312500000	-7.66896629333496	-61.15825271606445	12.63365554809570	16.57011413574219	6.70058059692383	5.21245956420898	28.69460296630859	23.48921966552734	5.55172443389893	-26.40949440002441	24.74735069274902	-55.66897201538086	-57.19337081909180	59.55312347412109	42.13644027709961	-62.38919067382812	47.88555145263672	19.39126777648926	53.70230865478516	-33.66638565063477	-6.37728929519653	19.79067993164062	36.15545654296875	-35.17364120483398	4.93501472473145	59.04151153564453	-8.49364471435547	-53.32943725585938	-20.59982490539551	2.34338092803955	43.51182174682617	42.70455932617188	-59.50219345092773	46.89926910400391	-78.99730682373047	60.49708557128906	41.06996154785156	12.66718387603760	-42.29922103881836	100.37275695800781	-17.52089118957520	-45.04410934448242	31.74575424194336	20.62227249145508	-130.99563598632812	-44.41847991943359	-29.07572364807129	11.65101432800293
P10451	-52.05229187011719	17.06392669677734	-13.20254707336426	8.78216743469238	-42.77609252929688	4.87305688858032	-1.58196067810059	7.10940313339233	-11.84871292114258	-48.45302963256836	7.84841251373291	23.33233261108398	-17.15503120422363	-10.70516872406006	-5.80712890625000	48.99935531616211	0.81561875343323	45.28642654418945	-15.82060241699219	12.27557182312012	38.57357788085938	12.32881259918213	-49.54686737060547	20.12789344787598	-72.06059265136719	-43.77537536621094	51.24317169189453	7.35821247100830	16.23047447204590	-65.65884399414062	10.79592514038086	9.80282974243164	28.64360809326172	-5.31211185455322	55.58173751831055	-2.70917415618896	44.29498291015625	16.48532104492188	-4.08318424224854	2.66893434524536	-103.13027954101562	-49.35182189941406	-50.73833847045898	16.30956268310547	13.38131904602051	20.18490600585938	-29.67995834350586	-48.91716003417969	21.30080604553223	-34.17099380493164	-14.78542709350586	20.08115959167480	-5.26586627960205	-33.16450881958008	20.71484756469727	1.83811807632446	0.51139599084854	3.32367873191833	24.08115386962891	15.84204578399658	9.72772026062012	-25.43391036987305	14.48882293701172	-41.61244964599609	-35.47435760498047	31.13924980163574	25.66050720214844	-50.64415740966797	30.63531875610352	19.82573509216309	35.03165817260742	-21.62755584716797	2.24654412269592	20.39325904846191	25.49923133850098	-26.33102035522461	-1.28263616561890	38.19403457641602	-1.28406536579132	-33.50625610351562	-20.99095726013184	15.02602958679199	38.11407470703125	29.69464874267578	-42.44459152221680	28.68392944335938	-59.25818252563477	38.30396652221680	21.04620170593262	7.54103946685791	-30.23154830932617	70.04808807373047	-9.28738975524902	-34.02447509765625	27.47265243530273	14.94433212280273	-80.80119323730469	-24.90354919433594	-10.95423030853271	8.45305919647217
P51671	-15.86207199096680	3.92397928237915	-3.11929488182068	4.23740720748901	-10.70101737976074	4.42603397369385	1.62434935569763	3.59111738204956	-5.66879892349243	-10.80657958984375	2.06032419204712	3.51701974868774	0.21602317690849	-6.37497186660767	-2.16055583953857	12.35194301605225	0.14977067708969	10.93673133850098	-4.62564849853516	4.23693561553955	9.69198513031006	4.01965141296387	-16.36602210998535	6.65186548233032	-23.52994537353516	-17.61393547058105	15.91519355773926	1.83244442939758	7.39505767822266	-19.17483901977539	6.53931760787964	5.93427705764771	7.37785291671753	-1.20797920227051	17.11072540283203	1.04029846191406	14.27560043334961	5.50234270095825	-1.29162144660950	-1.90306448936462	-30.40409088134766	-12.13725280761719	-21.40007781982422	5.01292371749878	5.91539812088013	6.53198480606079	-8.52048492431641	-12.72052383422852	6.51613235473633	-8.11521530151367	-4.62472534179688	5.72058391571045	-3.67055749893188	-11.45906639099121	3.82585287094116	4.03360605239868	-1.75066018104553	-2.01328277587891	2.23922801017761	4.12885856628418	0.18103429675102	-4.55818700790405	1.83379912376404	-11.02181434631348	-11.52740669250488	8.48599243164062	7.26957654953003	-10.27578830718994	11.16658592224121	4.16774940490723	9.58807086944580	-5.61842727661133	-2.33374190330505	2.16629242897034	6.35073661804199	-8.39792251586914	-0.91324919462204	15.30893993377686	-1.14624404907227	-10.19589138031006	-5.47475290298462	0.36587649583817	10.36904525756836	6.37604618072510	-10.82650375366211	9.78080177307129	-21.20201683044434	10.64825248718262	9.94548511505127	4.34902238845825	-8.08615684509277	20.50505447387695	-4.13602638244629	-7.96977233886719	8.07734680175781	5.67283582687378	-28.52659988403320	-8.41957759857178	-7.05350589752197	-0.29131156206131
Q16787	-536.44628906250000	200.45056152343750	-71.10641479492188	186.25164794921875	-408.20266723632812	138.78233337402344	-9.46347999572754	127.44027709960938	-215.45333862304688	-389.60430908203125	-5.22382402420044	249.37199401855469	-108.70027160644531	-121.89594268798828	-20.06635284423828	472.23577880859375	-83.42985534667969	475.39129638671875	-180.38984680175781	189.35473632812500	328.11822509765625	143.73463439941406	-614.91186523437500	217.20481872558594	-788.27673339843750	-538.44189453125000	587.44787597656250	160.99995422363281	160.58216857910156	-720.79296875000000	216.68887329101562	163.64791870117188	337.91271972656250	-50.06268310546875	536.87988281250000	28.93997573852539	507.92639160156250	116.98824310302734	-37.65047454833984	7.14279842376709	-1031.64050292968750	-454.21728515625000	-653.36914062500000	190.33969116210938	206.03698730468750	213.27558898925781	-367.91815185546875	-484.09954833984375	238.45285034179688	-318.96456909179688	-166.62162780761719	184.52923583984375	-79.81498718261719	-442.75390625000000	137.69944763183594	118.51828002929688	27.53185653686523	-15.41876411437988	101.10203552246094	174.38679504394531	55.74691009521484	-273.82315063476562	179.99392700195312	-391.36196899414062	-344.21429443359375	325.59249877929688	290.99212646484375	-365.00512695312500	374.12368774414062	105.53317260742188	395.96289062500000	-248.41421508789062	-13.07851219177246	108.68157196044922	248.80880737304688	-240.03469848632812	49.32142639160156	474.21603393554688	-60.66254425048828	-349.02496337890625	-175.39009094238281	22.27714729309082	291.91146850585938	252.71810913085938	-400.82934570312500	331.00372314453125	-608.38500976562500	431.06420898437500	265.82922363281250	75.32843017578125	-303.85485839843750	742.94183349609375	-164.43029785156250	-304.61843872070312	257.22564697265625	216.17056274414062	-998.29113769531250	-292.04760742187500	-188.71682739257812	68.04511260986328
Q13753	-190.02922058105469	73.14863586425781	-24.20943069458008	67.40257263183594	-151.98490905761719	47.19509124755859	-9.35137557983398	38.19821166992188	-84.52484130859375	-144.91932678222656	-13.45939064025879	91.98330688476562	-47.14352416992188	-56.51156616210938	-14.14638710021973	171.98828125000000	-34.28485488891602	171.59454345703125	-59.24001693725586	66.73643493652344	118.71395111083984	50.75263214111328	-209.84840393066406	81.77197265625000	-283.05661010742188	-178.67697143554688	207.40542602539062	66.70187377929688	46.23490142822266	-250.90286254882812	77.20608520507812	68.94990539550781	120.33416748046875	-16.00421905517578	201.93270874023438	13.11105918884277	175.73345947265625	31.32414245605469	-3.20920324325562	16.10840225219727	-360.34594726562500	-165.24392700195312	-229.53108215332031	60.91361236572266	75.56821441650391	67.64942932128906	-129.61682128906250	-165.51240539550781	83.64555358886719	-113.03344726562500	-56.20147705078125	62.43312835693359	-26.88630294799805	-152.49238586425781	49.78871154785156	56.03879547119141	9.74668979644775	-12.17587375640869	39.14678192138672	58.56098175048828	29.71234130859375	-101.51377868652344	66.19969940185547	-145.40567016601562	-120.34967803955078	106.16520690917969	100.49638366699219	-123.03510284423828	136.05932617187500	19.56641387939453	131.95451354980469	-89.25894165039062	-11.20212173461914	44.91164779663086	86.91983032226562	-83.17967224121094	19.31344604492188	170.75102233886719	-24.20895576477051	-126.44122314453125	-75.04370117187500	20.00674819946289	103.96359252929688	109.05802917480469	-144.57812500000000	126.60176849365234	-230.31179809570312	157.25819396972656	83.15588378906250	26.22392463684082	-109.60550689697266	270.12393188476562	-76.25778198242188	-93.11505126953125	82.59060668945312	78.53276062011719	-372.15093994140625	-92.09883117675781	-67.97553253173828	17.53181838989258
Q99715	-475.19757080078125	180.97471618652344	-74.91661834716797	176.84776306152344	-342.57019042968750	127.50674438476562	67.15882110595703	146.76895141601562	-165.81188964843750	-339.09805297851562	28.53963661193848	166.18572998046875	-82.90405273437500	-96.74573516845703	-8.58620738983154	410.07116699218750	-71.14813995361328	393.29614257812500	-150.22180175781250	172.03872680664062	254.52676391601562	128.67883300781250	-551.96026611328125	215.20349121093750	-744.83520507812500	-551.51184082031250	542.97631835937500	108.94099426269531	147.96124267578125	-634.29003906250000	173.31301879882812	158.53916931152344	269.94354248046875	-33.07384490966797	548.28942871093750	26.70988464355469	390.18371582031250	154.96612548828125	-62.72278976440430	-9.60613632202148	-1019.20190429687500	-442.48922729492188	-608.73486328125000	192.44378662109375	147.49331665039062	190.30520629882812	-301.45916748046875	-456.94180297851562	241.07220458984375	-312.92239379882812	-106.50018310546875	221.22406005859375	-66.56945800781250	-410.41870117187500	140.35784912109375	60.56950378417969	18.86482238769531	52.23276519775391	172.97279357910156	217.68450927734375	53.79175567626953	-174.12202453613281	164.81192016601562	-381.16693115234375	-358.29153442382812	325.30859375000000	309.15811157226562	-373.57012939453125	369.98266601562500	140.62184143066406	335.97760009765625	-170.13681030273438	54.77135467529297	90.03874969482422	206.61013793945312	-258.89938354492188	17.87699127197266	428.79016113281250	-10.06104564666748	-347.84796142578125	-145.18028259277344	17.60539436340332	269.49819946289062	210.76809692382812	-365.26318359375000	322.12274169921875	-561.78582763671875	386.27935791015625	252.20071411132812	123.97785186767578	-264.81604003906250	708.18389892578125	-91.26310729980469	-324.37960815429688	238.54925537109375	160.78878784179688	-850.15136718750000	-259.68646240234375	-143.40260314941406	91.93547058105469
P39900	-72.04195404052734	37.46675109863281	-8.64894866943359	16.05678176879883	-52.08614730834961	10.51503181457520	5.85665035247803	28.85735130310059	-26.50206184387207	-60.91483306884766	5.71239566802979	30.73130416870117	-8.22538185119629	-13.44181251525879	0.29796507954597	76.65493774414062	-1.21711349487305	62.28986740112305	-27.84020042419434	29.87239646911621	50.06079101562500	17.94539833068848	-84.01360321044922	36.76654052734375	-111.22705078125000	-93.43240356445312	82.83970642089844	2.79183340072632	31.85308265686035	-97.42903900146484	11.91668701171875	3.54160881042480	45.07954406738281	-7.06521701812744	63.48600006103516	-2.13663148880005	68.30038452148438	25.43455123901367	-1.93100285530090	-14.39685249328613	-145.61970520019531	-80.40017700195312	-92.63820648193359	28.98065948486328	27.48558807373047	26.31513214111328	-55.01689910888672	-79.52480316162109	22.78359031677246	-41.80160903930664	-22.83385467529297	36.52115249633789	-9.83389186859131	-64.77812194824219	17.43272590637207	13.73499011993408	-0.39513659477234	5.13603210449219	33.45005035400391	16.21459960937500	2.19837379455566	-32.16090774536133	19.88067817687988	-54.09427642822266	-59.46105194091797	55.96850585937500	40.30957031250000	-61.82099914550781	48.86209106445312	30.59578514099121	55.33060455322266	-29.37722396850586	-12.07875442504883	16.44708633422852	33.12859344482422	-40.81553268432617	7.13451671600342	60.20223236083984	-4.97137737274170	-51.80458831787109	-20.29914093017578	8.30185604095459	42.70454788208008	39.35588836669922	-59.73378753662109	42.86034774780273	-78.68677520751953	56.30167388916016	40.39889907836914	15.78701400756836	-43.75186920166016	94.96920776367188	-16.21565628051758	-56.75004577636719	33.67732238769531	22.20635223388672	-120.10754394531250	-46.43416213989258	-30.50984954833984	17.50040817260742
Q15063	-131.86120605468750	53.34363174438477	-26.82410430908203	35.00958251953125	-88.13275909423828	16.49020767211914	3.78975105285645	39.04949569702148	-22.72459220886230	-109.11648559570312	7.03992843627930	68.90239715576172	-26.01110839843750	-28.49483489990234	-10.52254486083984	138.63496398925781	-5.10880088806152	106.19305419921875	-51.53446197509766	44.16364669799805	97.26333618164062	31.41361618041992	-158.87228393554688	63.34565734863281	-210.39416503906250	-152.14007568359375	152.98626708984375	5.19345331192017	37.92223358154297	-171.74446105957031	20.82205390930176	15.89545249938965	75.91043090820312	-17.64653587341309	126.99505615234375	3.03322124481201	133.33537292480469	46.68625259399414	-5.09221124649048	-23.18056106567383	-259.45751953125000	-123.22351074218750	-152.21568298339844	38.13886260986328	51.73370361328125	55.39980697631836	-78.04357910156250	-136.09085083007812	34.42975234985352	-70.14421081542969	-48.48994827270508	56.79505920410156	-23.83194160461426	-108.91606140136719	47.82468032836914	19.59707641601562	4.42646169662476	-10.97278118133545	58.78987121582031	36.08917236328125	10.79554462432861	-56.98893737792969	29.02519416809082	-116.54081726074219	-103.64442443847656	95.06414031982422	65.92348480224609	-119.41630554199219	88.68080139160156	57.68220901489258	101.57693481445312	-49.74858856201172	-25.59099960327148	40.27683639526367	62.69313812255859	-72.82724761962891	9.61446571350098	106.00015258789062	-1.74164903163910	-87.82667541503906	-44.98526763916016	14.53546142578125	92.73295593261719	71.68185424804688	-105.52598571777344	84.53311157226562	-150.43145751953125	106.67446136474609	65.00587463378906	32.11071777343750	-74.23374176025391	179.23925781250000	-44.35427856445312	-92.81558227539062	60.33916091918945	39.61477661132812	-208.55886840820312	-76.79272460937500	-40.60923385620117	32.12752532958984
P05121	-64.95880126953125	27.62045478820801	-7.03814983367920	18.97629165649414	-40.52359008789062	17.56962203979492	7.16732931137085	19.17431449890137	-22.46022224426270	-42.06047439575195	4.37745046615601	24.41415596008301	-6.61915683746338	-16.50789070129395	-1.71786093711853	62.21502685546875	-4.56700611114502	52.15317535400391	-19.30064964294434	22.25444793701172	43.75922012329102	16.36800956726074	-67.09728240966797	31.20261573791504	-98.90786743164062	-80.96797180175781	67.31031799316406	0.95954155921936	22.77701950073242	-86.33822631835938	14.22700881958008	17.78843498229980	37.83646774291992	-8.12671661376953	64.21892547607422	3.33162307739258	56.83868789672852	22.80758666992188	-4.26141643524170	5.54177761077881	-123.43043518066406	-61.38288116455078	-84.72137451171875	24.21195602416992	22.08079910278320	26.08145141601562	-40.22203445434570	-66.99455261230469	28.61501502990723	-32.82427215576172	-13.92914199829102	35.20537185668945	-9.54487800598145	-57.98469543457031	11.69256591796875	13.66069030761719	2.55957937240601	2.16728401184082	19.00503349304199	22.29290580749512	6.55607366561890	-22.36161994934082	21.30905532836914	-38.27475357055664	-44.84986877441406	44.45080947875977	32.65044403076172	-44.67870330810547	43.63583755493164	14.96066570281982	38.29712295532227	-26.37420845031738	-2.74124813079834	12.93664360046387	30.25291252136230	-31.88355445861816	-2.49799418449402	51.88195037841797	-7.88795137405396	-47.02874755859375	-20.13409805297852	4.01790428161621	41.38945770263672	32.44255065917969	-47.37599182128906	41.54876708984375	-75.61805725097656	49.94973754882812	33.26003646850586	14.18590545654297	-39.43275070190430	92.75723266601562	-12.16084861755371	-40.23342895507812	33.90604782104492	14.08959007263184	-114.43173217773438	-34.35202789306641	-22.58113288879395	10.93754768371582
P00749	-66.14125823974609	25.92349624633789	-9.77530670166016	21.89692687988281	-51.83137893676758	14.93489742279053	-1.00197184085846	14.60827445983887	-28.65080261230469	-49.85022735595703	-1.00209236145020	31.75874328613281	-10.27466106414795	-12.34094333648682	-7.27641582489014	62.73050308227539	-7.32116603851318	65.34207916259766	-26.50705718994141	22.67378616333008	43.57936096191406	18.91459655761719	-80.06382751464844	25.40193748474121	-103.76600646972656	-72.80409240722656	74.94155883789062	21.02525901794434	24.57439613342285	-90.98489379882812	28.83089828491211	16.92375946044922	43.73331069946289	-6.84404659271240	63.90039443969727	2.76163864135742	66.62344360351562	17.35592079162598	-0.86824655532837	-7.04610252380371	-132.72288513183594	-58.53895568847656	-83.15971374511719	23.42480087280273	29.81934738159180	24.64909362792969	-49.55642700195312	-62.28707885742188	24.94230651855469	-40.76340484619141	-26.01505279541016	20.09957885742188	-6.75778961181641	-55.62326431274414	19.98008537292480	10.70428180694580	2.94954872131348	-6.67069721221924	11.13222503662109	19.05037879943848	8.50594425201416	-35.74322509765625	22.10806274414062	-50.11371612548828	-47.93638610839844	47.02122116088867	39.30422210693359	-49.06916046142578	44.96793365478516	13.75434494018555	56.54472732543945	-34.53894805908203	-4.70635652542114	10.72591209411621	32.67765808105469	-32.67883300781250	7.11386775970459	62.51230239868164	-6.67406368255615	-42.05858993530273	-20.46000099182129	-2.58863234519958	38.86363220214844	33.21580886840820	-51.33522796630859	42.33201980590820	-80.71630859375000	50.36314773559570	30.23542022705078	10.94136428833008	-42.73947906494141	94.81084442138672	-21.76679420471191	-42.95914077758789	29.53430175781250	28.71411514282227	-126.24297332763672	-40.73057937622070	-30.02002143859863	9.84436130523682
Q03405	-53.42502975463867	17.79399490356445	-5.81596612930298	21.52869796752930	-41.35089874267578	8.64502525329590	-5.99814224243164	10.54974746704102	-25.09601593017578	-33.72222900390625	-3.05820083618164	27.83572769165039	-9.88313293457031	-11.70804691314697	-4.29186201095581	43.95483016967773	-9.85359764099121	55.93985748291016	-20.32184028625488	19.52737426757812	34.71421051025391	16.20963287353516	-65.52648925781250	17.77481651306152	-76.43206787109375	-46.33258056640625	57.07537841796875	24.41336250305176	20.73513412475586	-72.44117736816406	29.97386550903320	18.48996162414551	36.52400970458984	-5.67896890640259	51.21273422241211	0.97840201854706	51.13459014892578	8.78812026977539	-3.34193181991577	-1.56223559379578	-100.77629089355469	-37.05130004882812	-67.43138122558594	19.02098464965820	20.03745651245117	21.77055549621582	-37.45349884033203	-45.73040771484375	25.57044219970703	-30.06522750854492	-22.17432022094727	10.58931255340576	-6.97732639312744	-42.53990554809570	13.45214653015137	12.16485881805420	2.63549661636353	-4.77109575271606	3.19439530372620	18.28794288635254	9.83810138702393	-27.97103691101074	17.05655479431152	-36.66388320922852	-33.36681365966797	29.72681808471680	33.44024658203125	-33.56307220458984	34.92190551757812	4.55408477783203	40.37392044067383	-29.31164550781250	-0.65269666910172	7.19118738174438	22.14573669433594	-17.92757415771484	7.59660196304321	47.41411972045898	-5.06258201599121	-32.51536560058594	-19.52267265319824	-2.85384440422058	28.43644142150879	20.73469161987305	-38.55754852294922	32.73924255371094	-60.65725708007812	41.93549346923828	24.99377250671387	6.97629833221436	-35.28974151611328	76.16294860839844	-19.43595886230469	-26.82134437561035	26.31869506835938	25.88803291320801	-109.62053680419922	-27.56110954284668	-23.90347099304199	5.34045791625977
P00750	-93.71043395996094	36.71255111694336	-5.65911102294922	33.70935058593750	-70.04395294189453	20.71058654785156	-0.37129670381546	14.16536045074463	-44.70806884765625	-57.72380065917969	-3.79208993911743	40.13283157348633	-10.64433670043945	-24.77386856079102	-8.97151756286621	76.88977813720703	-11.58418464660645	86.91395568847656	-27.63634109497070	28.44923400878906	51.13613891601562	27.39567756652832	-100.08712768554688	32.74050903320312	-129.59248352050781	-92.67040252685547	92.78467559814453	32.42794418334961	34.48580932617188	-119.09091186523438	44.45267486572266	31.73917007446289	60.32118225097656	-6.50162124633789	85.67440795898438	-0.87016737461090	83.80685424804688	15.18496322631836	-0.57228291034698	6.34161376953125	-172.66923522949219	-77.32743072509766	-112.46957397460938	33.61597442626953	29.52518844604492	34.28965377807617	-63.86432266235352	-82.11367034912109	38.00091934204102	-50.63381576538086	-24.08549880981445	31.33830070495605	-11.87884616851807	-69.89946746826172	18.16590881347656	26.50490188598633	5.92612123489380	-1.99769830703735	13.93569564819336	29.09124374389648	10.58966636657715	-51.43374633789062	25.42672157287598	-61.24736022949219	-62.73536300659180	54.84473419189453	50.17056274414062	-53.45553588867188	62.17572021484375	7.61276531219482	68.25515747070312	-43.34192657470703	-2.62760400772095	16.93853378295898	40.37437057495117	-35.61118698120117	7.69447135925293	74.63787078857422	-5.15603828430176	-61.62401580810547	-29.18117141723633	2.51213359832764	42.14503479003906	44.09621810913086	-69.51637268066406	58.39050292968750	-105.34513092041016	66.60328674316406	42.43552398681641	13.87177848815918	-59.24097442626953	127.11946868896484	-26.59158325195312	-50.65134429931641	41.50742721557617	41.27668380737305	-176.33236694335938	-48.07513427734375	-42.66678619384766	6.16703319549561
